105 10
12 0.12321666 0.01687535 0.15083241 0.1124765 0.09840425 0.09227683 0.05494527 0.002758585 -0.002817067 -0.062942415
8 0.06526326 0.019603645 0.14780545 0.114856936 0.11010101 0.057131145 0.08334436 0.0074796877 -0.036801558 0.002380596
3 0.06706799 -0.056514077 0.14129789 0.15267277 0.17443866 0.049808238 0.077968925 0.03801153 -0.06578434 0.026222378
72 0.07637139 -0.011273148 0.21837743 0.15153924 0.104443654 0.055486813 0.06780671 0.018514473 -0.042499717 0.020153718
84 0.11453444 0.015798612 0.13910191 0.13586704 0.1648192 0.06370996 0.0476954 0.025215093 -0.008407407 0.0012588766
73 0.03070317 -0.018780911 0.19823541 0.15343438 0.08634005 0.09033504 0.07028634 0.013707148 0.0062728054 0.020506686
30 0.057458583 -0.022899188 0.18048409 0.0888789 0.07013086 0.019437695 0.036123373 0.0074111773 0.0071869176 0.031984024
40 0.109677054 -0.039640024 0.1554173 0.13452391 0.14640251 0.04196031 0.08763325 -0.03977917 -0.054144923 -0.032378543
74 0.021012088 -0.041528884 0.0775626 0.095115855 0.11045938 0.044585876 0.08751633 -0.023722246 0.00806343 0.012990919
47 0.028640956 -0.011613669 0.14756301 0.05317062 0.09477689 0.092641674 0.09281464 0.03368374 -0.042362865 -0.018745186
66 0.07304046 0.0009443546 0.16216685 0.15703367 0.09095079 0.10148409 0.06796792 -0.01438372 -0.0153763825 0.0031983906
11 0.051299457 -0.057076707 0.17188714 0.07651217 0.08263158 0.08000556 0.0587239 -0.016562596 0.006888407 -0.012420237
75 0.11219034 0.01712385 0.18156669 0.09134458 0.15238594 0.083040185 0.06235521 0.0034088502 -0.0155161405 0.033487536
13 0.101829685 0.018376784 0.08403706 0.072316855 0.07335777 0.014758942 -0.00045823428 -0.0015104755 -0.051709022 -0.053131428
10 0.06875519 -0.058500387 0.13304596 0.10757678 0.10331037 0.09057144 0.02840938 -0.037391204 0.003928276 8.122604e-05
9 0.0732965 -0.018953122 0.11677 0.07057215 0.097430065 0.09096521 0.037499584 -0.004886955 0.023452554 -0.020999232
86 0.0410256 0.008627288 0.1674766 0.11047165 0.15237561 0.074827336 0.107142255 -0.049910154 -0.0029003 -0.0025047353
99 0.11163844 0.016169794 0.16538224 0.14753972 0.15342723 0.08281435 0.08399701 -0.006040969 -0.013068223 -0.055839036
58 0.06340891 -0.0424347 0.14443181 0.09022384 0.10787774 0.015035775 0.05294362 0.022262452 -0.045178592 -0.055547208
6 0.1021988 0.014029076 0.0950886 0.054018646 0.14207003 0.038470786 0.06218664 0.02476747 0.0146931745 0.027584584
71 0.106722794 0.03965169 0.12168046 0.13424551 0.12818186 0.073592484 0.08620648 -0.029693333 0.014690079 -0.035019692
76 0.07188481 -0.015680289 0.08632857 0.14113481 0.1022454 0.07562768 0.040045053 0.0445416 -0.0126473345 -0.029798917
4 0.074139096 -0.022505451 0.15868343 0.043252617 0.13533488 0.10486893 0.08757939 -0.04733529 0.008914863 -0.016461954
31 0.0156359 -0.025059886 0.0917075 0.042219646 0.058466528 0.023969524 0.08214531 0.040297106 0.003140736 -0.043832146
7 0.037252784 -0.03866246 0.13370173 0.10809131 0.112625256 0.06682353 0.0470236 -0.04712939 -0.006171053 0.009834479
64 0.07827922 -0.022331625 0.10985452 0.08210977 0.07766865 0.03855905 0.08193899 -0.04340538 -0.02904543 0.00417387
20 0.03167344 0.017552337 0.08013371 0.078804076 0.08044596 0.0387179 0.075489916 -0.009326678 -0.021710062 -0.036287658
24 0.052168492 0.0028799044 0.14916645 0.1253148 0.1367657 0.0024672563 0.0067464295 -0.020978086 -0.029739419 0.036100507
33 0.056408416 -0.0364187 0.14499158 0.086761884 0.13113527 0.031365473 0.04594328 -0.04417611 -0.028367855 0.02398634
100 0.09594457 0.025723428 0.14055493 0.071692996 0.084435865 0.019671716 0.054350268 -0.014737112 -0.017484438 -0.05316494
49 0.049159247 -0.05575583 0.08627254 0.12000128 0.14004649 0.09343283 0.057694882 -0.050820705 -0.0466362 0.016669085
41 0.021329518 0.034117352 0.13852748 0.062040757 0.116142996 0.02635926 0.07285672 -0.04495178 -0.008650829 0.030043641
35 0.09253897 0.016010033 0.12414228 0.10138502 0.15155885 0.08808642 0.033172924 -0.043331973 0.016760696 -0.059412915
5 0.03856011 -0.010019033 0.10491176 0.13047543 0.04502067 0.044793762 -0.010398582 -0.021854227 -0.023216063 0.034010373
67 0.026228683 0.019590389 0.17792806 0.12171938 0.14490147 0.030780917 0.060847536 0.0004985216 -0.06783705 -0.0032093592
0 0.029684125 0.02603553 0.07005913 0.08447772 0.1494289 0.09246567 -0.0019193621 0.021849565 -0.02185388 -0.058805563
26 0.08156776 -0.025766578 0.0724764 0.12560864 0.057295542 -0.0037944526 0.0076314285 0.04477485 -0.0033526763 0.022981135
39 0.07699882 -0.013497694 0.1128175 0.12925921 0.102824375 0.04881526 0.029921327 -0.014648911 -0.06025636 -0.05471314
65 0.08754 0.0053638867 0.09623142 0.10782235 0.14542939 0.07533171 0.031255387 -0.04332854 0.032588188 -0.018251467
23 0.054661814 0.018435393 0.11688434 0.106781214 0.07414675 -0.01032286 0.026096074 0.03592771 0.022613974 0.0318273
14 0.06015956 -0.037250955 0.1466758 0.04793811 0.09433745 0.07205039 -0.011768608 0.018977618 -0.035111338 -0.034697276
82 0.050912417 -0.033639263 0.13902533 0.10464543 0.12028733 0.0021317054 0.03601988 0.012285902 -0.03587766 -0.022141442
97 0.07398866 -0.03278741 0.07491357 0.04638072 0.13144189 0.031718075 0.021956231 -0.012472653 -0.046896093 0.039193127
38 0.009504935 -0.052125502 0.10958883 0.1255413 0.075787134 0.0871886 0.022833116 0.02296207 0.0074452194 -0.042367764
94 0.06943938 0.039390445 0.099394925 0.09037736 0.032374397 0.045676723 0.077380635 0.01682444 -0.011548581 0.035394907
17 0.08937522 0.0022168315 0.11353376 0.043846525 0.038040187 0.07834288 0.03475671 -0.051180635 -0.036339216 -0.016697692
51 0.07193044 -0.024709946 0.17550473 0.1054563 0.14878213 0.06168701 0.04124508 0.023438295 -0.018018097 -0.011742845
91 0.09663067 -0.029762229 0.100472756 0.038293336 0.03349454 0.076863185 0.021939168 -0.026648205 0.020849578 -0.028548717
96 -0.0010237166 0.046227187 0.05569643 0.08695422 0.10476055 0.050282072 0.009979238 -0.013436198 0.025213135 0.04070897
93 0.073380075 0.010878179 0.0963363 0.115517244 0.093279466 0.010513568 -0.010581049 -0.022724878 -0.038909152 0.04109983
62 0.049207266 -0.056720283 0.13259219 0.1098813 0.09007045 0.08364492 0.025702879 0.036499336 -0.07030986 -0.049829755
37 0.020426892 -0.032265943 0.11159445 0.04492696 0.11954135 0.06412674 0.07200251 -0.046724845 0.016128171 0.015750552
60 0.09821602 -0.053973284 0.08406362 0.12421557 0.0748491 0.038614724 0.046582457 0.0044575776 -0.057055004 -0.06819766
2 0.026320076 -0.038796026 0.14871685 0.13067564 0.046318777 0.08331699 0.006412385 -0.054807484 0.025072817 -0.043217447
69 0.039831158 -0.04907701 0.050678182 0.13532679 0.08494831 0.03214247 0.009666613 0.029890873 0.017326863 -0.04967107
22 0.02879059 0.018984564 0.07036397 0.11461437 0.11553083 -0.0024189365 0.016979955 0.0427214 -0.034869004 -0.022037677
32 0.03974367 -0.03745249 0.031762965 0.022808475 0.1177494 -0.008833879 0.024278285 -0.036190145 -0.010703427 0.0025625948
83 0.023702258 -0.033936046 0.08028982 0.11012938 0.05144237 0.05883073 0.026380783 0.0263509 -0.041596092 0.007956695
79 0.05169264 0.03419521 0.107128665 0.12925476 0.043808028 0.05887533 -0.0012620222 -0.0133899115 -0.013279682 -0.056237802
70 0.05105723 -0.04387127 0.10447355 0.046089288 0.080369234 0.040839195 0.014643205 -0.0009393688 0.0061810883 -0.055766772
85 0.1015956 0.0091252895 0.15153125 0.11555493 0.14058267 0.0056851073 0.063588575 0.027886974 -0.005257873 -0.04376109
27 0.053227056 -0.043236632 0.1332222 0.12311876 0.11343735 0.0012523894 0.07113084 0.02882228 0.021848889 -0.043401286
59 0.0827292 -0.009119934 0.1124208 0.11159738 0.10231842 0.010211047 0.02599624 -0.03954975 0.005891866 -0.03581855
43 0.06868332 -0.032863285 0.116319165 0.087919936 0.0869177 0.063914716 0.06788243 -0.02074439 -0.009286835 0.004103756
95 0.102080785 -0.046317186 0.08102253 0.054334186 0.10418461 0.08757795 0.02395741 0.008917689 -0.041858185 -0.025456004
63 0.053847734 0.004047269 0.14948711 0.050713915 0.13574646 0.06458323 0.033344697 0.015541033 -0.057372354 -0.045107976
19 0.096054085 -0.025477018 0.10299875 0.04210652 0.09575773 0.05505672 0.023046782 -0.051210497 -0.029074563 -0.05151558
1 0.08530013 -0.04287174 0.101121224 0.076584935 0.11766595 0.03829126 -0.013501363 -0.03252841 -0.030579245 -0.04631112
15 0.080710866 0.013288564 0.13263965 0.098136134 0.12733582 0.037419606 -0.015688444 -0.032651212 0.012004602 -0.01528854
54 0.002086493 -0.028931687 0.062594384 0.021150246 0.0563947 0.027299613 -0.017134584 0.012337898 0.011858309 0.0073081325
57 0.034152884 0.010674655 0.09301427 0.045859892 0.041459154 0.032863013 0.058275074 -0.0018915895 -0.022606518 0.023174552
101 -0.006237853 0.043311965 0.064213954 0.015292298 0.08052602 0.001331882 0.052640248 0.009396695 -0.0029631183 -0.012450706
89 0.03460755 0.0033580088 0.14510459 0.1225502 0.078172475 0.0122635085 0.050215952 -0.022770138 -0.0035406763 -0.022215161
77 0.047467362 -0.0002408448 0.0751008 0.10427816 0.09161521 0.043789066 0.08154301 0.02112635 0.0145840235 -0.060464337
98 0.007607542 0.009374226 0.13900226 0.08860395 0.09878204 0.080726616 0.076166615 -0.04700877 -0.03278124 0.021154132
44 -0.003133629 -0.00014348967 0.0758997 0.022034843 0.07542868 0.013488724 -0.009866978 0.041488655 0.03152308 0.000694931
42 -0.004275844 -0.040856633 0.05580179 0.018596789 0.071657985 0.08028613 -0.0032883743 0.014822886 0.020418866 -0.019500239
104 0.012048026 -0.019108834 0.10714847 0.08319872 0.07855472 0.030513294 0.08266698 0.015857395 0.023670087 -0.052302826
45 0.027069459 -0.039767664 0.06128915 0.11373874 0.1439311 0.091216125 0.012108525 0.036007043 -0.05274773 0.030237397
81 -0.008003324 0.04448741 0.1214265 0.021582363 0.08103623 0.06357054 0.04062162 0.0047363196 -0.008458837 0.006275427
78 -0.0060174516 -0.005943023 0.032349963 0.102692515 0.021670086 0.079112 0.04188412 0.0024211477 -0.054684233 -0.0063372855
53 0.06895182 0.018836986 0.043685663 0.10530272 0.11307813 0.053830985 0.07879304 -0.035799682 -0.025473803 -0.01192026
61 0.059244744 0.0010321632 0.109382 0.110214725 0.07675519 0.060000837 0.03661625 0.012372139 -0.047768224 0.027651515
90 0.0668548 0.0077364845 0.08697702 0.07671788 0.068369515 0.05160758 0.026869211 -0.029308725 -0.03978271 0.029380612
25 -0.0054593473 0.01615194 0.085416764 0.097521715 0.047563095 0.07103718 0.060183488 -0.021809604 -0.036492486 -0.049702574
68 0.018117039 0.003980373 0.047567938 0.052356526 0.08279547 0.00066431635 0.008330739 -0.011140347 -0.050897233 0.010393865
29 0.085641466 0.040475257 0.117440864 0.102937385 0.024324194 0.050653957 -0.005599132 0.017847389 0.03680089 -0.05301646
102 0.10152146 0.035683215 0.091060326 0.042549144 0.075146824 0.068554685 0.092159815 -0.02965649 -0.031011254 0.014127558
34 0.026637146 -0.030419104 0.0910177 0.024958482 0.07416773 0.0725303 -0.014491716 -0.004872237 -0.046757903 -0.014441591
21 0.036373384 -0.054325644 0.09655381 0.08757645 0.09919797 0.06882292 0.045137383 -0.05355805 0.03701722 0.016481925
52 0.0070416695 0.02092049 0.07782675 0.0981834 0.085288644 0.038869996 0.013596303 -0.048284378 -0.045618795 -0.05724928
48 0.0040982747 -0.025089523 0.04495687 0.06395958 0.09173499 0.06301096 0.054694522 -0.043279927 -0.041007396 -0.015898017
46 0.038038075 0.041018654 0.10856032 0.055656645 0.09878595 0.07214269 0.06055261 0.00015375516 -0.013588347 -0.0041306433
87 0.037533037 0.0049680197 0.0528911 0.025202695 0.02491488 0.03663862 -0.0082983 -0.004848456 -0.039696347 0.026473334
56 0.046177913 -0.027808474 0.076789625 0.06433194 0.1309568 0.059873194 0.083085954 -0.033650346 -0.053554386 -0.047522373
55 0.08007544 0.018616302 0.10509745 0.10168519 0.0649735 0.013411606 0.052283775 0.040482488 -0.05360506 -0.06155396
36 0.08574638 -0.047388095 0.08406229 0.0952987 0.062969334 -0.01329529 -0.002066959 -0.0045062597 -0.042881303 0.013824639
103 0.064427525 0.0022369744 0.062482756 0.10759477 0.14751308 0.013732013 0.0013852941 0.014192707 -0.012453297 -0.02334814
80 0.06623515 0.042076416 0.096517794 0.08499109 0.08360146 0.011762139 0.073561616 0.015421572 0.037544724 0.036595203
92 0.07240808 0.025563614 0.09942316 0.06941375 0.07231052 0.032237083 0.05067215 0.03941557 0.039298896 -0.036139213
28 0.05255125 0.0050234054 0.057590194 0.017392578 0.10724947 0.07080063 0.06653537 -0.02371569 -0.04927316 -0.052882984
88 0.055046838 -0.046139434 0.11540783 0.067662574 0.07077111 0.012799188 0.07260899 -0.021476945 -0.04373429 -0.030362258
50 -0.014515723 -0.030871427 0.10589415 0.07310923 0.0886184 0.025869248 -0.00909397 0.033742588 -0.03525729 -0.050900925
16 0.061643656 -0.051746465 0.020117672 0.028888183 0.06432822 0.029553754 0.038704712 -0.012957127 -0.041277647 -0.05404346
18 0.061258044 0.019975005 0.06338855 0.07797785 0.00450893 0.014981517 -0.016325193 -0.011830898 0.014010694 -0.044460572
