2832 10
1472 -1.957099 0.60698885 -0.36838025 -0.39112765 -0.2663635 -0.020103566 -0.092945434 0.5979571 -0.74601513 0.14556488
298 -2.0177016 -0.012160914 -0.77075 -0.3585695 0.009292702 -0.08084644 -0.14504847 0.3088034 -0.6777105 0.33516634
700 -2.3241096 0.28704876 -0.5200141 -0.15730737 -0.48261288 0.85516375 0.48230782 0.9873617 0.045319416 0.28833258
2268 -1.7613629 0.80805475 -0.13471282 -0.3766772 -0.0074906675 -0.46079528 0.38771892 0.39505395 -0.9099667 0.2070756
1192 -1.9910276 0.13116698 -0.75503767 -0.29695347 0.09145868 -0.4094358 -0.37058786 0.7484342 -0.47787246 0.4650942
2462 -1.7630134 0.9343649 0.0006768774 -0.29414815 -0.02573294 -0.43701702 0.4673808 0.40502784 -0.97760046 0.2361386
1090 -1.730902 0.42899668 -0.45024547 -0.025480943 -0.0008604823 -0.3343695 0.30041158 0.4043758 -1.0422732 0.5752825
535 -1.6667336 0.9348865 -0.17439552 -0.23909539 0.1916671 -0.44140968 0.62292457 0.5277775 -1.1104126 0.164194
1941 -2.0333424 0.34635597 -0.5080592 0.15621996 -0.07316191 -0.8571402 -0.28980416 0.413486 -0.65401304 0.19599937
1788 -1.8259386 0.44996852 -0.6775446 -0.023365289 0.017993893 -0.4889024 0.08976611 0.40537253 -0.82325184 0.4317054
1894 -1.8942039 0.3556043 -1.0971154 0.0737297 0.17808259 -0.24498428 0.4357664 0.15754548 -0.58721185 0.68096113
1843 -1.892025 0.35890856 -0.6816278 -0.3085884 -0.09933122 -0.051872395 0.37482768 0.33669642 -0.77611953 0.3777877
1573 -1.7844076 0.86582696 0.022688812 -0.2629943 -0.08864228 -0.49894533 0.18522301 0.49473178 -1.0551618 0.3029535
1525 -1.7135133 0.7899107 -0.17928521 -0.20815594 0.18285881 -0.4548306 0.43989226 0.30269292 -1.1302646 0.2637487
2173 -2.2784598 -0.14221948 -0.7267069 0.020243473 -0.71613115 -0.55494297 -0.05878239 0.8509245 -0.09376014 0.3443952
661 -1.7093343 0.60372967 -0.5740797 -0.31140137 0.059068322 -0.41341662 0.34469363 0.32792422 -0.9180021 0.2856043
383 -1.7269238 0.7532085 -0.29701146 -0.2893715 0.07818 -0.33589107 0.55512446 0.43324333 -0.9156373 0.28117555
162 -1.6807392 0.5749572 -0.7656438 -0.28034237 0.11634589 -0.33159816 0.8014032 0.49261323 -0.88846844 0.45564562
667 -1.7449688 0.65568405 -0.4159365 -0.2099512 0.13186914 -0.33196613 0.5884834 0.3625542 -0.9641754 0.49976826
1375 -2.4028726 0.47802263 -0.31919196 0.680413 -0.30967098 -0.5885931 -0.69112533 0.89981467 -0.38158146 0.15748672
2640 -1.8063043 0.45418647 -0.56015235 -0.013931412 0.06869798 -0.25282103 0.41090012 0.440298 -0.9110551 0.4363013
2743 -1.6905459 0.7464289 -0.36300802 -0.3809132 0.1309163 -0.33646038 0.66654646 0.3296888 -1.1312773 0.3111207
698 -1.882558 0.51152563 -0.7023196 0.06705384 0.07657129 -0.7612767 -0.10107274 0.26524645 -0.8322832 0.33571017
485 -1.821047 0.49385333 -0.44312915 0.030518105 0.20689231 -0.19997385 0.39341614 0.50089484 -1.050741 0.21400286
1736 -1.8224916 0.62082547 -0.7361199 -0.26035932 -0.35842672 -0.26340184 0.12805155 0.45601982 -0.9199143 0.23859443
2701 -1.7430772 0.9765887 -0.098754734 -0.32595375 0.023928542 -0.52240527 0.6615839 0.37645236 -1.0614401 0.15643358
675 -2.054158 0.64288414 -0.5458658 0.14149785 -0.16921057 -0.7541612 -0.12102153 0.5138063 -0.68601084 0.03095812
939 -1.7287209 1.1082096 -0.11229249 -0.18816032 0.085419975 -0.50212914 0.6347343 0.5158529 -0.9562647 0.18592107
76 -1.6839309 0.31671673 -1.0855503 -0.40556708 0.13114376 -0.23952483 0.5477884 0.32169035 -0.82622945 0.5640228
1924 -1.7706584 0.38017806 -0.72974813 -0.23932223 0.21292117 -0.36495706 0.44725272 0.449579 -0.98978364 0.20424742
2003 -1.7435037 0.51850843 -0.8505395 -0.13417669 0.20912035 -0.4580513 0.582567 0.5005352 -0.93082416 0.30576223
874 -2.2580504 0.45087036 -0.3719194 0.16597761 -0.049751796 -0.80183834 -0.21927968 0.6616957 -0.4196396 0.30331478
107 -1.8376964 1.1358044 -0.09794452 -0.29269752 -0.033541605 -0.42580417 0.5672911 0.37010893 -0.897816 0.05537961
1640 -1.8677477 0.7283934 -0.23618323 -0.26456442 0.21928154 -0.48673317 0.33901381 0.42019144 -0.8556524 0.3624164
1052 -1.756612 1.1031431 -0.15851003 -0.37362808 0.06737568 -0.49420696 0.44213542 0.45382622 -1.0489454 0.28399408
2306 -1.7879381 0.48914242 -0.65890175 -0.31091905 0.4158187 -0.17301784 0.3253663 0.29683128 -1.0608447 0.57591856
1566 -1.9140428 0.2625008 -0.8726982 -0.390773 -0.48643664 -0.06107346 0.020821655 0.29248142 -0.89695984 0.5181451
2071 -1.8159876 0.6722508 -0.7658702 0.13758743 0.266197 -0.38902774 -0.2142656 0.4010096 -0.8018744 0.54257977
1698 -1.7475449 0.94197255 -0.2424803 -0.36493284 -0.03624388 -0.4563191 0.18949828 0.36058626 -1.0736382 0.17525013
268 -1.7630253 0.79355395 -0.66313946 -0.25344667 0.041087914 -0.22404774 0.6755472 0.40644976 -0.910787 0.44394377
557 -1.7474804 0.80660677 -0.29814884 -0.17299017 0.08863466 -0.49323085 0.34719217 0.39595956 -1.0111102 0.33179075
4 -1.8499099 1.0016936 -0.20739324 -0.24064384 0.06425807 -0.5378145 0.5934543 0.5474294 -0.8518427 0.24983619
1495 -1.8111404 0.5259477 -0.5390427 -0.08496464 0.098121375 -0.32962695 0.14456701 0.5407921 -0.9877324 0.47944266
1220 -1.7084608 0.6413235 -0.6934423 -0.30513555 -0.005985229 -0.27794817 0.6974918 0.57006204 -0.9101545 0.5945443
2050 -1.8497714 0.62962496 -0.5771386 -0.099095985 -0.004421624 -0.29498044 0.07877158 0.5595895 -0.76351726 0.3314921
2485 -1.8821129 0.38902727 -0.38683596 -0.11381398 -0.0018946748 -0.40152544 0.099094585 0.39401132 -1.0478715 0.34659448
697 -1.7297268 0.5683506 -0.9068682 -0.077012934 0.05245806 -0.26750982 0.5827024 0.5281101 -0.9020571 0.52826893
101 -1.6933204 0.84878176 -0.44329464 -0.2083296 0.13312095 -0.463664 0.5479672 0.53437454 -0.96695626 0.39270952
1868 -1.7349464 0.67834604 -0.42034662 0.012121412 -0.0050391597 -0.48984343 0.2155717 0.60207754 -1.127144 0.25413468
632 -1.8345376 0.5819921 -0.6038418 -0.23567365 0.020219425 -0.33373263 0.50147027 0.4755034 -0.8601491 0.40115523
2066 -2.475086 0.09943809 -0.7143279 -0.30289298 0.15469801 -0.07584258 -0.2087629 0.76004726 -0.76847476 -0.04198541
796 -1.896683 0.4748942 -0.6646278 -0.36880237 -0.19745933 -0.29603043 0.48295847 0.4045717 -0.7453601 0.4026609
433 -2.1842322 0.28462654 -0.42825994 -0.21413311 -0.057631586 -0.5407667 0.03524538 0.46791577 -0.70056885 0.18193616
2100 -1.695356 0.72059655 -0.6824031 -0.24512818 -0.027131032 -0.21219343 0.5292265 0.4196844 -0.87236005 0.4960172
846 -1.696688 0.7672886 -0.5381981 -0.18923964 0.0936447 -0.39093533 0.443068 0.52284414 -1.0734043 0.38010657
176 -1.778777 0.6653803 -0.3502403 -0.17149535 0.15359353 -0.3757006 0.55287415 0.5333016 -1.0463891 0.39545843
151 -1.8876323 0.6948714 -0.46312958 -0.05151185 -0.084149554 -0.5531747 0.090785734 0.33841437 -0.88260764 0.33345124
69 -1.792527 0.79816943 -0.3846359 -0.18419604 0.11085478 -0.50657797 0.35087374 0.3819921 -0.9519385 0.41512585
2035 -1.7987125 0.5166225 -0.7843824 -0.28593457 -0.02221466 -0.31090337 0.4828203 0.4502279 -0.8968782 0.47948748
1345 -2.024315 0.45238653 -0.32700026 -0.20334871 0.08937795 -0.32064402 0.19055413 0.2923532 -1.0098901 0.38211578
1085 -1.8893939 0.87907684 0.10557669 -0.48181793 -0.7364629 -0.69670606 -0.78319925 0.18637931 -1.5582004 0.70834786
71 -1.811732 0.6443212 -0.5658503 0.08163322 0.043115515 -0.49737695 0.2775649 0.43876922 -1.2316928 0.6292428
930 -1.74906 0.6181899 -0.6454495 -0.2700686 0.06628611 -0.24785404 0.49688473 0.3446419 -1.0225248 0.54325354
999 -1.8448013 0.46656987 -0.8167515 -0.29805267 -0.10313137 -0.29961288 0.19945893 0.3603553 -0.9991753 0.26726374
2749 -1.8497488 0.47692156 -0.7407461 0.006449698 -0.009568135 -0.42436734 0.26968026 0.5108865 -1.1948303 0.5320609
1297 -2.1152792 0.52993953 -0.53923315 -0.34190497 -0.15989907 -0.4830612 0.007945309 0.49440077 -0.82608074 0.23482624
2738 -1.666207 0.6563051 -0.7419294 -0.2300613 0.09757349 -0.38185817 0.57812685 0.39633572 -0.96078813 0.386562
1527 -1.832532 0.88078654 -0.34990904 -0.21647689 -0.040976167 -0.45176393 0.4854592 0.3515431 -0.97386724 0.2624388
2447 -1.8927817 0.6706508 -0.43383685 -0.06683757 -0.023288269 -0.41350186 0.28944883 0.5771184 -0.8000931 0.42362309
1482 -1.8671168 0.7149617 -0.29885077 -0.21922216 0.03596664 -0.37959516 0.450556 0.42312616 -1.0974097 0.30168542
2380 -1.8682369 0.6031207 -0.6595099 -0.2612177 -0.040779244 -0.37610495 0.5038816 0.4490688 -1.0014838 0.42977545
303 -1.8775122 0.78137505 -0.31045565 -0.19393916 0.036984272 -0.33349907 0.41724604 0.4657723 -1.0422372 0.4276094
1739 -1.953119 0.5483984 -0.5842226 -0.01038402 0.09004998 -0.35765928 0.21003692 0.4888694 -0.9159236 0.2637426
1301 -1.7724308 0.5172474 -0.6718957 -0.12753303 0.11469114 -0.274086 0.34893766 0.4521373 -0.8398512 0.3945684
2771 -1.9569095 0.6823469 -0.4729667 -0.086604744 -0.0604334 -0.44452688 0.18988852 0.56287855 -0.8700534 0.41113192
219 -1.7356933 0.70640355 -0.550194 -0.18762048 0.1469029 -0.2625971 0.52420026 0.43050006 -0.9515161 0.5050841
2568 -1.8596742 0.8589724 -0.31990847 -0.118866846 -0.074099384 -0.48666477 0.23661534 0.43551707 -0.81017894 0.2940321
625 -1.7621913 0.7782831 -0.5359865 -0.17646287 0.055517215 -0.37948745 0.39173514 0.33529907 -0.94984806 0.30860683
1423 -1.7501149 0.6924477 -0.5853468 -0.15786734 0.14819866 -0.3496989 0.53165835 0.4986479 -1.0049454 0.3462902
1024 -1.7748497 0.62585163 -0.6073018 -0.1738108 0.14275694 -0.19456324 0.5444484 0.4948474 -0.9866229 0.326918
2042 -1.7502785 0.64378 -0.6263437 -0.044569146 0.057829406 -0.3066524 0.44821543 0.47944096 -0.8158686 0.49398857
1156 -1.9087826 0.40445808 -0.6854896 -0.18184774 -0.07836329 -0.33077848 0.4377319 0.4398828 -0.8230108 0.4757048
541 -1.8026589 0.6575456 -0.46050832 -0.24139066 -0.022832828 -0.31479782 0.35131162 0.49531478 -0.79393315 0.4067113
189 -1.8892841 0.5953504 -0.7324724 -0.036485415 0.06948629 -0.5259137 0.28851452 0.39385822 -0.83502966 0.5247263
580 -1.8114249 0.6339049 -0.5920524 -0.11966729 0.056453094 -0.3268007 0.42158714 0.49248004 -1.0316827 0.35621223
35 -1.8725687 0.55885524 -0.55346435 -0.15734807 -0.002482486 -0.41643792 0.38744864 0.544286 -0.9330831 0.36373556
2578 -1.7865299 0.67495835 -0.4459687 -0.19238271 0.019056303 -0.38835806 0.56399876 0.43862143 -0.95983565 0.5287494
205 -1.7549641 0.58508927 -0.5844878 -0.1750069 0.03949648 -0.25346872 0.40646634 0.4347259 -0.81448734 0.43302596
943 -1.7664835 0.67243516 -0.64221245 -0.2564264 -0.017769622 -0.3486379 0.4199419 0.4739731 -0.87342906 0.39285472
2681 -1.9695548 0.5154641 -0.49874595 -0.20652676 -0.09459473 -0.37375304 0.23044537 0.45931736 -0.94801766 0.2994079
907 -1.7314882 0.6970266 -0.5023911 -0.19156568 0.077916145 -0.39807335 0.3136483 0.42576575 -1.0143756 0.30788866
2826 -1.8508183 0.81243134 -0.33401144 -0.17652401 0.071011685 -0.44994816 0.359916 0.53814983 -0.8579569 0.27064404
834 -1.7009099 0.65714085 -0.53119457 -0.114065185 0.12092422 -0.33778116 0.39438865 0.3833139 -0.9260931 0.45724228
1218 -1.8171276 0.6769616 -0.3744197 -0.21730506 0.055875774 -0.3499067 0.41738525 0.40042338 -0.9106072 0.3702131
1545 -1.949741 0.7869906 -0.47261894 -0.25384423 0.22521712 -0.23873481 0.33706632 0.4138452 -0.92344433 0.47842103
2367 -1.7732025 0.70494163 -0.45522416 -0.21469735 0.12206862 -0.46298203 0.4446932 0.4386009 -1.0071183 0.33416396
876 -1.7282808 0.5747999 -0.6327434 -0.095649384 0.036899783 -0.48172367 0.42391217 0.47122484 -0.79575104 0.37658972
145 -1.7680246 0.7798505 -0.3993633 -0.17217341 0.0024147057 -0.37193704 0.39247885 0.48859304 -0.88999385 0.30718955
961 -1.7617106 0.5969619 -0.46244103 -0.13702498 -0.10384192 -0.38177565 0.21966608 0.35107622 -0.8058419 0.413338
2656 -1.7933527 0.8059272 -0.4314416 -0.26718557 0.062393036 -0.44563797 0.46049303 0.44407153 -0.96159005 0.2946428
2491 -1.8790827 0.7092125 -0.31589338 -0.09631929 0.07987091 -0.45343786 0.40486023 0.5088143 -0.9615413 0.29191157
2782 -1.8402965 0.69346213 -0.48725346 -0.24434614 -0.059966404 -0.3474965 0.1961521 0.45041472 -0.7887269 0.33974922
396 -2.177521 0.6456245 -0.6761535 -0.049555905 0.09943372 -0.2544145 -0.055659506 0.27817547 -0.82805026 0.083105616
440 -1.8027512 0.5656121 -0.5325387 -0.009293778 0.0020412349 -0.34843606 0.14467512 0.4830517 -0.9584578 0.38622612
526 -1.8844168 0.6193796 -0.4968752 -0.13023828 0.018028602 -0.4138824 0.2288032 0.5678258 -0.9699351 0.46599767
1361 -1.7544665 0.6146518 -0.720147 -0.2210089 0.1390757 -0.24113484 0.5197122 0.3884743 -0.9870403 0.5001855
2088 -1.7847047 0.57447064 -0.6742076 -0.15822986 0.121209346 -0.27869722 0.42998925 0.4249135 -0.9712531 0.47558352
2790 -1.7959476 0.74560505 -0.60826063 -0.1890125 0.096942514 -0.23123267 0.42195025 0.51727134 -0.8998649 0.4405563
958 -1.7699959 0.7754071 -0.28211844 -0.24566272 0.07100377 -0.50452036 0.41804764 0.37354675 -0.920919 0.30010498
2020 -1.8416777 0.53494483 -0.5218977 -0.041269477 0.018039063 -0.33132875 0.27769578 0.48615882 -0.70046115 0.4464565
388 -1.752594 0.60172147 -0.42089656 -0.23053111 -0.0703918 -0.42129025 0.37898546 0.37260467 -0.9340431 0.29797107
267 -1.7611626 0.5212211 -0.6319736 -0.14625233 -0.12323596 -0.45159325 0.13113393 0.5041395 -0.9711229 0.35204548
1282 -2.0056021 0.7188594 -0.45784184 -0.177615 0.013714794 -0.42114395 0.0815323 0.51955324 -0.8549656 0.44072413
895 -1.7684504 0.74123484 -0.449676 -0.2795278 0.01854051 -0.31680775 0.41982362 0.426361 -0.91813177 0.4251866
1290 -1.7526536 0.6119948 -0.5784945 -0.03933702 0.13875423 -0.35639727 0.40760586 0.47258848 -1.0121129 0.47383824
896 -1.9021353 0.76620966 -0.32264704 -0.2233356 0.0390025 -0.532571 0.49009877 0.38941982 -0.87845576 0.33266813
1876 -1.9235209 0.7335463 -0.54089487 -0.2726016 0.046520222 -0.32764125 0.2523674 0.41536826 -0.852918 0.39592275
449 -1.690623 0.6692311 -0.5021196 -0.24706896 -0.026489902 -0.4832447 0.3858926 0.3768357 -0.8132078 0.34876007
1673 -1.81462 0.42070544 -0.70353466 -0.18136477 -0.029107153 -0.3275686 0.37280476 0.35467795 -0.93744123 0.50293744
931 -1.7587583 0.5918184 -0.6360282 -0.17137487 -0.053063508 -0.34427506 0.3937382 0.48308885 -0.9014884 0.45758656
1064 -1.7588578 0.73873466 -0.28865185 -0.21950424 0.060241193 -0.3593732 0.4435028 0.42721605 -0.85458934 0.3536306
2747 -2.0287957 0.6273573 -0.5018848 -0.10291684 0.05749261 -0.6161309 0.028683456 0.48395285 -0.8017725 0.3438146
1871 -1.9518596 0.7386328 -0.054354183 -0.35327408 -0.61718756 -0.61642 -0.61367863 0.4433705 -1.4232521 0.66763383
1526 -1.7816737 0.45878482 -0.65317935 -0.036406945 -0.018768318 -0.3919917 0.3554129 0.42094016 -1.0470499 0.47301313
2271 -1.792146 0.7941538 -0.3751847 -0.27848098 0.035008263 -0.41749603 0.3912214 0.52306175 -0.904847 0.4316011
963 -1.8462662 0.5967382 -0.6805544 -0.35506475 -0.09783799 -0.273898 0.3541714 0.47166857 -0.8996936 0.38351232
208 -1.888084 0.60197335 -0.6459713 -0.26853842 0.067437895 -0.38863516 0.33534676 0.4629919 -0.85636455 0.39674076
1467 -1.8035803 0.7292644 -0.46752438 -0.1950489 0.09803699 -0.30386505 0.45840284 0.51301694 -1.0347574 0.41081274
1732 -1.9136518 0.7632151 -0.34691796 -0.22508582 -0.036865056 -0.45274144 0.3591557 0.3867513 -0.86412764 0.29160544
2112 -1.8505944 0.5571783 -0.58279884 -0.14849553 0.04695331 -0.35287657 0.33842018 0.4560173 -0.9830483 0.3135723
2021 -1.7232845 0.6788746 -0.54163426 -0.13891192 0.053521153 -0.39226428 0.38535538 0.44297507 -0.9277239 0.38786322
2098 -1.8735275 0.56418943 -0.48172438 -0.21856695 -0.06994231 -0.30932674 0.34066218 0.37014058 -0.87678003 0.38123703
407 -1.7118355 0.67868227 -0.54188484 -0.19961897 -0.0066984952 -0.30048302 0.29845884 0.478683 -0.8480567 0.31292674
89 -1.781674 0.69494915 -0.5347636 -0.20806666 -0.0031463627 -0.32880867 0.52183986 0.42175445 -0.9882423 0.41900176
663 -1.7437187 0.77914035 -0.3880394 -0.1712127 0.037870172 -0.31882498 0.44305366 0.3739422 -0.97210395 0.3894624
1766 -1.9189671 0.63236076 -0.43259695 -0.09713665 -0.04065003 -0.33708173 0.22838335 0.46307036 -0.9497264 0.31640148
2542 -1.8500403 0.64290076 -0.41744357 -0.19845301 -0.070700794 -0.38347563 0.31519496 0.45617858 -0.8377889 0.25078282
312 -1.7020482 0.645716 -0.55576193 -0.12941031 -0.01806914 -0.28312844 0.3154924 0.41847953 -0.9312331 0.4068455
819 -1.7645178 0.58291847 -0.46822086 -0.13653104 0.0006881898 -0.3863537 0.36459357 0.52655256 -0.93053806 0.417608
392 -1.8011181 0.6682895 -0.61703736 -0.14804295 0.014025074 -0.35257864 0.42160007 0.49853244 -0.9552856 0.4132743
38 -1.8057742 0.54677325 -0.5004758 -0.122932605 -0.0144036515 -0.36624348 0.32066128 0.45976534 -0.8804671 0.28521037
2490 -1.8099709 0.4960524 -0.72085583 -0.029458169 0.10478602 -0.43076414 0.27713528 0.41880175 -1.0182241 0.44097003
110 -1.6934999 0.5140092 -0.50157964 -0.14524207 0.03652753 -0.3308263 0.28345478 0.33071065 -0.9186729 0.4163743
1671 -1.7767767 0.47083324 -0.52385753 -0.10169704 -0.15957296 -0.34559473 0.1731106 0.34766555 -0.7486045 0.40157902
1354 -1.8146615 0.7026801 -0.52593946 -0.1639684 0.12108816 -0.35252076 0.30675307 0.52461684 -0.8368616 0.30890518
153 -1.7869784 0.7346018 -0.46883652 -0.15159433 0.10675342 -0.29284212 0.41933054 0.41516644 -0.8628668 0.4527517
792 -1.8756397 0.65402806 -0.3821355 -0.18457964 0.08815634 -0.45786667 0.41976187 0.50359243 -1.0054873 0.3352939
1352 -1.8140004 0.5293207 -0.5826517 -0.11304941 -0.01076548 -0.3233053 0.235786 0.41583723 -0.90808284 0.38000134
1131 -1.7430562 0.7472264 -0.44336706 -0.22213033 0.07546629 -0.24958412 0.3579794 0.45008275 -1.008541 0.26035503
1819 -1.9420874 0.59864074 -0.57512635 -0.23566818 0.021287592 -0.37958413 0.37345958 0.5033719 -0.92938346 0.35857838
669 -2.0006673 0.57902646 -0.6544601 -0.0057124067 -0.1171998 -0.30940855 0.014661108 0.54126394 -0.7975484 0.40814778
1122 -1.8435401 0.5438733 -0.42974037 -0.0926299 0.022218877 -0.35484797 0.3188145 0.5327128 -0.9452132 0.4135281
749 -1.880344 0.551395 -0.56508756 -0.28264457 0.0542064 -0.4367408 0.43852016 0.37623042 -0.86253095 0.42476052
496 -1.7395574 0.71547115 -0.4260372 -0.25119475 -0.003372877 -0.2877997 0.417856 0.5056633 -0.9373772 0.34504402
821 -1.7846817 0.6263174 -0.5610679 -0.23277976 0.13558052 -0.36664915 0.48523098 0.4341272 -0.8378023 0.38499013
430 -1.7127694 0.6856206 -0.39077714 -0.19473289 0.005229426 -0.41618636 0.3959842 0.48814252 -0.8549143 0.28997022
2779 -1.8273311 0.58707297 -0.49208036 -0.20995323 0.05073297 -0.23335692 0.25548398 0.44794723 -0.85336316 0.38527822
1289 -1.8456235 0.621028 -0.5284208 -0.094612725 -0.04491277 -0.4831374 0.31387642 0.46982297 -0.77631444 0.45410922
1537 -1.9875479 0.5548216 -0.5918859 -0.19106306 0.015431686 -0.47409636 0.3527353 0.4908995 -0.94110817 0.2901851
2460 -1.7233129 0.59663385 -0.62942815 -0.13746019 -0.06093964 -0.30290622 0.3920469 0.49464762 -0.8241632 0.40260434
1808 -1.932323 0.46391633 -0.65694344 -0.048176132 -0.0408002 -0.44384554 0.25599995 0.35294047 -0.9362041 0.4084633
2521 -1.7782155 0.55065435 -0.620089 -0.22730277 0.022132358 -0.30029288 0.31349683 0.44473118 -0.9418191 0.34848583
2537 -1.6667033 0.54747504 -0.41180414 -0.13352208 0.06330083 -0.36873445 0.2300378 0.47906834 -0.93956363 0.41510618
2584 -1.7036407 0.52426356 -0.5525617 -0.14405912 0.059433352 -0.29986656 0.23307204 0.49561357 -0.81161845 0.32100046
1862 -1.8445678 0.6273213 -0.48011622 -0.255669 0.022782216 -0.30691105 0.46960226 0.48411503 -0.8889739 0.3340503
1674 -1.8246557 0.57719004 -0.49759352 -0.2293261 0.10551016 -0.43279946 0.25092503 0.46263063 -0.7439096 0.46853375
608 -1.8194724 0.49320465 -0.46001637 -0.12952234 -0.10692772 -0.26494393 0.17817503 0.41150665 -0.7903706 0.32463706
1692 -1.7300575 0.54197216 -0.6251214 -0.23208936 0.035785772 -0.37719086 0.384629 0.36579633 -0.8980208 0.31862548
1158 -1.7985107 0.43528944 -0.6526324 -0.048536208 0.023460237 -0.3854605 0.33964127 0.50972384 -0.96559787 0.32698867
1548 -1.7697785 0.65886784 -0.4818848 -0.13603055 -0.030693635 -0.3170493 0.37329727 0.42667902 -0.9350342 0.44817027
74 -1.7097139 0.56953526 -0.39420033 -0.15722188 0.061774787 -0.325619 0.3478191 0.37693647 -0.8721922 0.34810147
1738 -1.7351034 0.5372334 -0.6456042 -0.20532224 -0.0073765884 -0.38343322 0.4405757 0.42220563 -0.95656425 0.4673551
2664 -1.7213384 0.6581664 -0.57180035 -0.20485531 0.060090315 -0.2839745 0.42204985 0.42099562 -0.9256914 0.44206345
1851 -1.7543191 0.6223486 -0.54880214 -0.20914368 -0.06638696 -0.30004317 0.50107455 0.43322942 -0.9315909 0.41055644
84 -1.7920067 0.50145036 -0.5425845 -0.18888634 -0.05245922 -0.40046132 0.34947053 0.5294572 -0.90564257 0.27744904
2286 -1.7588944 0.5650937 -0.51497924 -0.17644788 0.050034173 -0.37840483 0.41105792 0.46658808 -0.9327351 0.308689
2322 -1.7236342 0.5153756 -0.54550236 -0.13429445 0.030898564 -0.37338233 0.3462215 0.39938974 -0.91240954 0.30742398
597 -1.7167447 0.5822049 -0.48218045 -0.24692978 -0.024078008 -0.33420625 0.43197894 0.39012614 -0.8809795 0.3159087
1576 -1.6536142 0.5708555 -0.4941572 -0.110860795 0.074669525 -0.28879154 0.32268476 0.38171268 -0.8190278 0.40644556
872 -1.8625171 0.6092546 -0.69587255 -0.1603857 0.032144155 -0.34247252 0.3715702 0.5245946 -0.8555765 0.40729588
2647 -1.8717589 0.5193521 -0.7625493 -0.11328558 -0.026258387 -0.33007243 0.18968447 0.46959382 -1.0692374 0.34745046
827 -1.7001508 0.70736176 -0.32440558 -0.19320643 0.009740051 -0.47240824 0.2667543 0.46778208 -0.831613 0.274552
2130 -1.7749957 0.6568141 -0.55280316 -0.11861523 -0.07829787 -0.31903774 0.44596124 0.4283042 -0.98421544 0.49246362
610 -1.7602204 0.6085928 -0.64440143 -0.12962443 -0.017488422 -0.2978125 0.4500667 0.47335494 -0.8719212 0.3946544
1969 -1.9490483 0.55336505 -0.5490464 -0.21782956 -0.014197987 -0.41355437 0.33755484 0.44556478 -0.95000887 0.4028794
728 -1.771792 0.52892506 -0.55416685 -0.20722394 0.022681579 -0.35113978 0.45443207 0.37248704 -0.85466206 0.48769763
862 -1.7976178 0.59587246 -0.5833134 -0.15872616 0.08067007 -0.33105105 0.44553858 0.48978785 -0.98571235 0.32037288
1439 -1.7549161 0.5285808 -0.5157336 -0.20806827 -0.04520519 -0.39606795 0.29277205 0.46225044 -0.78606915 0.39262068
1478 -1.8195717 0.5124247 -0.470458 -0.019499317 -0.005304935 -0.2943531 0.27077058 0.50694346 -0.70736367 0.28536117
2028 -1.7265037 0.5202136 -0.5831877 -0.13049918 -0.12301305 -0.42757443 0.11751179 0.4228984 -0.65402484 0.36238977
2389 -1.7317754 0.55437523 -0.50097 -0.14845377 0.04707597 -0.3348538 0.41786444 0.41236392 -0.85470235 0.4028427
2065 -1.674311 0.6981045 -0.48967028 -0.20944718 0.0984602 -0.33942124 0.33364797 0.4699975 -0.92243963 0.36802858
2582 -1.671329 0.52722025 -0.52729523 -0.20963353 0.02104879 -0.36887 0.349731 0.48158026 -0.7737618 0.41238976
166 -1.7465912 0.662904 -0.31015015 -0.09365987 0.02442143 -0.29338828 0.40706533 0.42118677 -0.83427775 0.36607227
1296 -1.6205717 0.53487104 -0.4972561 -0.24211189 -0.02007261 -0.36908758 0.37442133 0.43722042 -0.8223001 0.3352138
678 -1.7608111 0.65918607 -0.48242405 -0.2779738 0.030538846 -0.35061044 0.4032151 0.4372608 -0.9152805 0.40351456
2331 -1.7651833 0.6589944 -0.5561096 -0.18196885 -0.042330742 -0.29140747 0.43367538 0.47579348 -0.8933701 0.46054667
1431 -1.7126712 0.6766843 -0.4461048 -0.24028414 -0.007838555 -0.29655603 0.4143792 0.36464357 -0.966363 0.3186923
2133 -1.7348578 0.5892777 -0.50895756 -0.14063016 -0.005170281 -0.34346923 0.31599864 0.37227985 -0.8946597 0.34909895
1062 -1.8362064 0.74059665 -0.4512519 -0.1928497 -0.057502806 -0.42220595 0.3176533 0.44622457 -0.8608907 0.2732897
116 -1.8968009 0.556176 -0.4020827 -0.08108661 -0.058150116 -0.47096094 0.14174299 0.4688707 -0.7615404 0.40753385
2463 -1.7518114 0.59729654 -0.52416533 -0.08097162 0.048083745 -0.46529454 0.3193444 0.35958976 -0.9558561 0.41167888
479 -1.7525395 0.6532664 -0.5628716 -0.16438667 0.041164424 -0.25473768 0.39457074 0.41776916 -0.8892857 0.47753054
445 -1.7894834 0.6717528 -0.48590374 -0.21227667 0.059636913 -0.3551918 0.30235618 0.5312212 -0.950166 0.33025303
81 -1.6450952 0.5725333 -0.61500764 -0.11458939 0.051155746 -0.3586362 0.3822168 0.3788584 -0.8331255 0.43604043
618 -1.7112975 0.5467272 -0.6053089 -0.19910103 0.06192394 -0.29000926 0.27667046 0.4221246 -0.9079104 0.36759675
1797 -1.7918569 0.61869496 -0.47089866 -0.13064496 0.11085902 -0.3868377 0.24868801 0.5196969 -0.937705 0.33529833
2553 -1.7508528 0.47612864 -0.60481083 -0.040628828 -0.03803959 -0.3864575 0.3247887 0.39932114 -0.781321 0.42655388
280 -1.8179011 0.7500518 -0.42967522 -0.29991984 0.027887065 -0.44358465 0.2806604 0.4623923 -0.86794144 0.33290124
805 -1.8647856 0.4826678 -0.53976154 -0.08084157 -0.16378838 -0.17977704 0.290016 0.50933206 -0.62304246 0.3907528
2129 -1.7280363 0.64093715 -0.609976 -0.13475534 0.13828456 -0.403516 0.29828656 0.4814413 -0.8526478 0.4240068
2731 -1.8911556 0.49040133 -0.49550828 -0.08510168 0.010961976 -0.43113464 0.1881205 0.4809716 -0.82078594 0.3763936
1496 -1.7150728 0.32800022 -0.69711405 -0.07150994 0.042286497 -0.28742337 0.16821639 0.48845416 -0.70887876 0.42760357
2459 -1.7077249 0.6406824 -0.4021178 -0.2018831 -0.05780331 -0.31653374 0.33080044 0.41146195 -0.9170596 0.31242445
2665 -1.7440153 0.5602415 -0.3816201 -0.14845353 0.022397537 -0.27482307 0.32120392 0.35629353 -0.83661836 0.28263047
837 -1.6468021 0.48764616 -0.55316776 -0.214034 -0.009647327 -0.30946305 0.35482123 0.37172654 -0.89734954 0.35208145
1054 -1.7351388 0.6482966 -0.41355133 -0.22371243 -0.026373085 -0.3045064 0.40195292 0.43879846 -0.8127353 0.3619136
1580 -1.7190046 0.54573137 -0.4121775 -0.15412548 0.026810864 -0.3811045 0.22615863 0.4056098 -0.93331176 0.3939681
1789 -1.7622625 0.63038105 -0.37525517 -0.13829422 0.04146236 -0.43226555 0.35810363 0.41174084 -0.8750271 0.30410627
884 -1.810195 0.50704306 -0.5294853 -0.13783683 0.024424847 -0.42831028 0.21240631 0.47591403 -0.9448724 0.2976978
666 -1.7579712 0.5182027 -0.5662259 -0.062899575 -0.05134774 -0.38725173 0.33538708 0.45409966 -0.7863638 0.32585132
2150 -1.7444556 0.50575626 -0.48676035 -0.27450266 -0.06555003 -0.32157093 0.36083493 0.45988253 -0.87828356 0.34058186
1524 -1.6395758 0.60609233 -0.35127777 -0.10497948 0.010499023 -0.329778 0.3608655 0.43358687 -0.9118964 0.30329576
44 -1.7727325 0.5353094 -0.487868 -0.24664374 -0.060309365 -0.41872865 0.454241 0.4291364 -0.97649395 0.34935927
800 -1.703574 0.68773276 -0.45516965 -0.14155613 -0.0066008177 -0.41798568 0.31805432 0.44472322 -0.91065174 0.36536634
2465 -1.8329647 0.56783307 -0.5497547 -0.03882454 -0.15869494 -0.4344142 0.113947146 0.529605 -0.726096 0.3141237
504 -1.707757 0.56317246 -0.44620377 -0.14869285 -0.01806701 -0.35141525 0.333008 0.37868065 -0.797989 0.37724462
97 -1.781484 0.5933581 -0.45845708 -0.1480709 -0.0804289 -0.34383562 0.35983795 0.451236 -1.0032976 0.31986013
305 -1.6626173 0.65798515 -0.41453293 -0.15835561 -0.022499213 -0.35937455 0.39270374 0.40829262 -0.8355231 0.28137413
1445 -1.6640536 0.3615487 -0.5683361 -0.11770381 -0.104579344 -0.35289592 0.25685462 0.33893847 -0.7967079 0.2965849
2652 -1.7128682 0.5622335 -0.43306044 -0.14384042 -0.020968005 -0.3857765 0.15116243 0.38982168 -0.8905007 0.2578892
877 -1.6757395 0.564106 -0.61214995 -0.18321252 0.059159547 -0.16453977 0.31849527 0.46329287 -0.79103357 0.3828806
286 -1.7041726 0.54850835 -0.5462397 -0.22478318 -0.03626198 -0.3168988 0.30621338 0.4731258 -0.8702767 0.44305593
992 -1.59546 0.53679705 -0.45226848 -0.14663024 -0.043276314 -0.24214634 0.14414574 0.44419 -0.8434312 0.31053063
468 -1.6849704 0.5728214 -0.42270857 -0.17271437 -0.03238636 -0.24840903 0.39177403 0.43554714 -0.7705335 0.37156138
1057 -1.7092271 0.6463286 -0.52204025 -0.23121595 -0.029850353 -0.26404518 0.37247258 0.35995448 -0.88845193 0.32186046
212 -1.661338 0.650833 -0.3216511 -0.13113384 -0.03737124 -0.39123654 0.4099247 0.45659328 -0.86903113 0.2988068
1725 -1.7364913 0.56964946 -0.496116 -0.17674862 -0.12579778 -0.44456702 0.14807002 0.4387178 -0.7897523 0.3595303
247 -1.8150088 0.5105151 -0.60418487 -0.114646114 0.053806137 -0.39973676 0.23214261 0.47225618 -0.7720363 0.43539757
784 -1.649814 0.66449803 -0.47193834 -0.16552688 0.07507455 -0.32830092 0.28200367 0.37581542 -0.9244639 0.26789865
615 -1.6845964 0.5966835 -0.5128086 -0.13324915 -0.018450296 -0.31523803 0.42167735 0.38190377 -0.91027343 0.39108247
1782 -1.9005591 0.66033536 -0.5861815 -0.17197505 0.022492643 -0.37490106 0.19636063 0.46039099 -0.8653021 0.387222
2348 -1.8903662 0.65368766 -0.5096605 -0.22361904 -0.057328675 -0.31173962 0.21996824 0.5139242 -0.96059483 0.30404603
2644 -1.6146569 0.57322085 -0.6676437 -0.21507119 0.00035126647 -0.33639878 0.41204748 0.38641977 -0.9029858 0.39980376
668 -1.6648834 0.54411745 -0.5453642 -0.09157418 -0.010509359 -0.31361455 0.24757102 0.3994927 -0.90156615 0.44036296
933 -1.7303307 0.6221166 -0.54274356 -0.24962969 -0.06737284 -0.34816065 0.30640364 0.437387 -0.88004625 0.41339135
1638 -1.7258048 0.70563775 -0.48306885 -0.26583713 -0.016680494 -0.27595654 0.3118354 0.48966742 -0.87922204 0.32757026
2155 -1.7503351 0.48761246 -0.6465705 -0.18179421 0.04460884 -0.26898193 0.25418803 0.3651707 -0.8192163 0.4692508
2761 -1.8339448 0.48008606 -0.44289762 -0.10329814 -0.05616537 -0.4101603 0.27738214 0.48403007 -0.7938925 0.32743493
323 -1.7853642 0.62132293 -0.53398883 -0.09027908 -0.05013657 -0.4083339 0.14411905 0.48722163 -0.8537556 0.2390403
1768 -1.8397912 0.68864304 -0.40498027 -0.18406263 -0.037133235 -0.34329993 0.4072615 0.40405723 -0.88833916 0.2933858
423 -1.6936035 0.5088176 -0.5095003 -0.11442337 -0.0020165092 -0.15744704 0.34719935 0.40862605 -0.704673 0.38793766
2530 -1.5827496 0.5118486 -0.4777584 -0.0972819 -0.07865631 -0.23062444 0.20668134 0.42409405 -0.7883102 0.42353532
2226 -1.6764165 0.59094894 -0.49300736 -0.1971709 0.044712536 -0.2849405 0.27361467 0.4179671 -0.7603908 0.31167078
2249 -1.732391 0.6953321 -0.44639045 -0.1539371 -0.0048287157 -0.37986407 0.35696903 0.41358876 -0.84567136 0.31379342
1991 -1.7372661 0.5514481 -0.5333466 -0.14052017 -0.022289071 -0.3758363 0.17982417 0.48509634 -0.89108 0.22588228
2184 -1.7652382 0.44557527 -0.60426384 -0.1733834 0.00038758345 -0.2634285 0.2995703 0.5122521 -0.8466844 0.34522817
2258 -1.5790695 0.556846 -0.58030653 -0.14135899 0.031955548 -0.2928208 0.32952088 0.45484838 -0.8368975 0.33597624
207 -1.6905798 0.5337091 -0.43417695 -0.05139921 0.030523228 -0.37641335 0.1657156 0.41868857 -0.77176565 0.3237692
1008 -1.6833323 0.5746787 -0.43930268 -0.1889039 -0.011613786 -0.25624445 0.20692462 0.34478876 -0.8743969 0.32329994
1805 -1.5785178 0.6523122 -0.41896436 -0.11192164 0.0066055404 -0.28974947 0.33576927 0.37007168 -0.83525366 0.3336568
1195 -1.7302285 0.6793517 -0.53572357 -0.09920179 0.06316516 -0.3157264 0.3152719 0.39189398 -0.83139634 0.36333814
2192 -1.7571983 0.5284956 -0.42355832 -0.1692608 -0.048384294 -0.40435088 0.12459234 0.46299708 -0.75964135 0.3011304
2623 -1.709726 0.5254307 -0.25124884 -0.24373911 -0.15269752 -0.39850917 -0.02143711 0.35200602 -0.9915253 0.41782615
1504 -1.7207128 0.6263696 -0.44901678 -0.27024883 0.065593995 -0.401582 0.46327496 0.4389779 -0.9100865 0.3543686
256 -1.6240134 0.47198576 -0.5040823 -0.16565639 -0.045015454 -0.35480258 0.2382424 0.4116544 -0.8371599 0.3684636
1849 -1.5947796 0.6313877 -0.4493973 -0.17566046 0.06403111 -0.3818819 0.35293308 0.39230713 -0.82883143 0.34284288
867 -1.6862296 0.40318513 -0.5566225 -0.23112237 -0.04088141 -0.3451763 0.31582588 0.34092 -0.7779386 0.35658702
522 -1.6924547 0.5063236 -0.5815622 -0.12493707 -0.057178956 -0.31979886 0.21845303 0.36222622 -0.7703891 0.3689766
2253 -1.6135681 0.4873894 -0.467129 -0.16527115 0.047013175 -0.39818028 0.29446673 0.38107017 -0.818025 0.36310366
1972 -1.5737194 0.55553347 -0.5127585 -0.20411529 0.07445221 -0.38137007 0.3735352 0.4012178 -0.7043102 0.38364518
2536 -1.6248535 0.54499537 -0.41769272 -0.19187434 0.077036254 -0.27928463 0.42618835 0.34127814 -0.8153902 0.39223334
1694 -1.6654965 0.41047025 -0.6494308 -0.24824342 -0.020656345 -0.42139637 0.31042945 0.42159787 -0.7824593 0.31846583
1020 -1.5940049 0.5393438 -0.5413037 -0.09940714 0.08518696 -0.27203628 0.3415716 0.40184718 -0.7680344 0.36452818
1908 -1.8440111 0.58967996 -0.5375959 -0.13252495 -0.09637485 -0.39302573 0.20885204 0.38356546 -0.76225567 0.35932097
2325 -1.6352259 0.5945907 -0.44013244 -0.12898146 0.02630909 -0.26931888 0.261874 0.37507644 -0.881741 0.35415232
2588 -1.7096243 0.49263445 -0.53552264 -0.1698109 -0.026731148 -0.37653127 0.28108588 0.4130787 -0.6613947 0.327989
650 -1.803236 0.6957439 -0.3597232 -0.16130197 -0.054640256 -0.4085098 0.31845903 0.48499745 -0.84258276 0.285829
1293 -1.6296383 0.5808042 -0.5644439 -0.16467932 0.11014177 -0.26215798 0.3689788 0.47180414 -0.8861052 0.3473973
227 -1.5949376 0.5408438 -0.5370317 -0.15689479 0.09061368 -0.29540363 0.29237142 0.32382783 -0.81149447 0.29773387
544 -1.5480392 0.51745516 -0.36489093 -0.17347221 0.014746844 -0.26165354 0.2247591 0.3989202 -0.8170222 0.33333135
1960 -1.6664978 0.6010984 -0.31506568 -0.18051058 -0.073242284 -0.264216 0.19787823 0.32964012 -0.78730804 0.22740129
313 -1.701257 0.6255516 -0.5151779 -0.12267801 0.05056478 -0.29098597 0.35311756 0.39231896 -0.908755 0.41495177
2628 -1.7979927 0.49043104 -0.6151675 -0.2134468 -0.026443318 -0.3341617 0.16048263 0.35966867 -0.84745157 0.4069198
2309 -1.5558152 0.6056228 -0.4181585 -0.15081257 0.08321808 -0.36960334 0.20900983 0.4103845 -0.8375796 0.33662418
1443 -1.5408832 0.62063515 -0.4895319 -0.16612075 0.06116205 -0.2840404 0.33139867 0.34713814 -0.80751663 0.33931765
1280 -1.694289 0.641441 -0.57538563 -0.24565051 -0.07617271 -0.33385697 0.44704092 0.44567743 -0.8376273 0.4710156
755 -1.5929261 0.5137709 -0.531047 -0.117318146 0.035308946 -0.2608687 0.3690173 0.41883078 -0.800501 0.33304557
2180 -1.5859035 0.4722685 -0.46713302 -0.2447834 0.04395732 -0.3074648 0.3167013 0.40406975 -0.76228607 0.32706094
672 -1.5746787 0.590926 -0.56794304 -0.18336424 0.07510126 -0.31119522 0.22750129 0.34964204 -0.6980291 0.39471468
2741 -1.6857618 0.71573746 -0.3620134 -0.2336137 0.03881352 -0.36581886 0.35504913 0.41403145 -0.89897925 0.306704
1844 -1.6514797 0.49202377 -0.46705174 -0.09162663 -0.013584005 -0.25682998 0.2650128 0.47082222 -0.753174 0.30000544
2182 -1.8164536 0.53175664 -0.55664253 -0.20222321 -0.055097222 -0.28448814 0.27920324 0.4231201 -0.85493106 0.2804879
1425 -1.8395554 0.46455535 -0.4942042 -0.22601031 -0.07447378 -0.43797886 0.26938835 0.5559477 -0.74696267 0.19178864
2705 -1.7277389 0.59736943 -0.56350005 -0.1913375 0.0035597591 -0.33151254 0.30015355 0.44481683 -0.82176304 0.3443644
1403 -1.7137201 0.53503925 -0.43046522 -0.118098155 0.032975666 -0.3958666 0.16675399 0.38356975 -0.7507077 0.2802019
2603 -1.8384185 0.44929212 -0.49737492 -0.042580042 0.05223106 -0.42346224 0.18432091 0.43625045 -0.91324216 0.32421273
193 -1.7679625 0.6017589 -0.46033713 -0.14824748 0.08353278 -0.38720486 0.33093932 0.3951305 -0.8684901 0.50504714
567 -1.5406213 0.5962336 -0.43787998 -0.17322312 -0.007464425 -0.3152868 0.2994198 0.31252807 -0.8102858 0.3166066
412 -1.5410106 0.5536716 -0.39287186 -0.13397484 -0.04598924 -0.25741494 0.2666364 0.3683498 -0.76506627 0.33596155
2387 -1.5562922 0.60301995 -0.44887528 -0.1415629 -0.016300302 -0.3067977 0.41318867 0.33347228 -0.71058595 0.33904204
2064 -1.8243134 0.5890482 -0.5380385 -0.15817703 0.0067908713 -0.36634254 0.2016518 0.51377237 -0.86391425 0.45963812
1041 -1.5912924 0.5746474 -0.45546028 -0.052020073 -0.04548883 -0.31184515 0.16014144 0.4474863 -0.6812485 0.25499713
613 -1.6284361 0.60300994 -0.3584189 -0.15685411 -0.04202621 -0.33396855 0.28467232 0.3755029 -0.80865055 0.32315427
785 -1.5577644 0.52125037 -0.35629442 -0.1770571 -0.038445435 -0.3154904 0.20046525 0.37411195 -0.7923123 0.26739377
1261 -1.8475192 0.65008944 -0.55529875 -0.22078098 -0.12872231 -0.26069707 0.14383504 0.36406305 -0.88328946 0.4382648
1536 -1.5734283 0.55614036 -0.43530685 -0.12608698 0.058829267 -0.2548351 0.27274713 0.39398608 -0.72346884 0.3845541
1883 -1.615873 0.53505605 -0.4122361 -0.12630706 -0.0038920173 -0.3358177 0.26539907 0.38151667 -0.84108233 0.35739312
77 -1.6003736 0.46288908 -0.557785 -0.18601961 0.029281484 -0.25579083 0.26463032 0.41141394 -0.73417574 0.34375322
174 -1.7575436 0.65350354 -0.4350579 -0.21208043 -0.042426486 -0.38145998 0.273896 0.4243443 -0.8534822 0.34030566
1829 -1.6335295 0.5475991 -0.42135298 -0.13962503 0.057145894 -0.2963957 0.30413103 0.415159 -0.8255263 0.29152298
1594 -1.6388305 0.62789166 -0.4792929 -0.2121901 0.030227507 -0.38595653 0.35781574 0.4698191 -0.8974282 0.29145816
1884 -1.8180817 0.58437896 -0.5318443 -0.2566275 0.03837668 -0.32746503 0.36236805 0.48183084 -0.9177208 0.4423765
1631 -1.5830294 0.45314747 -0.5340807 -0.08698496 -0.04900345 -0.22232404 0.20452212 0.39783308 -0.78683805 0.28343606
1645 -1.6892469 0.58434796 -0.5176779 -0.17730375 0.005162667 -0.40334672 0.2923207 0.3833111 -0.72663176 0.35687944
1491 -1.6397145 0.5007842 -0.52205706 -0.04992984 0.017368428 -0.40734115 0.3056584 0.36234468 -0.8714427 0.38838834
2254 -1.7420571 0.49821833 -0.5058416 -0.09544842 0.12455469 -0.33795032 0.29291457 0.3166637 -0.7715261 0.2942911
583 -1.740359 0.5167931 -0.5513646 -0.15417568 0.04720604 -0.32858244 0.22944993 0.41211143 -0.85078347 0.28067145
555 -1.6177199 0.6556876 -0.37399825 -0.19221333 -0.06687273 -0.25107566 0.3838186 0.36642674 -0.8825607 0.3408338
1106 -1.5737165 0.5307203 -0.41835335 -0.15246516 -0.025660884 -0.31889987 0.28013998 0.39658463 -0.837613 0.35440993
2719 -1.8917722 0.5387803 -0.5719788 -0.22291723 -0.025287118 -0.31842306 0.19040082 0.4820683 -0.9450405 0.36807838
1600 -1.6001817 0.59416187 -0.47368523 -0.2045533 0.025752483 -0.30579814 0.31328753 0.4187942 -0.8365645 0.39938357
2765 -1.5698994 0.46851888 -0.42445603 -0.22426493 0.02343091 -0.2512105 0.36709982 0.3546196 -0.71719444 0.38592488
1322 -1.6193273 0.6066782 -0.34802353 -0.14380525 -0.0007364251 -0.249554 0.31865895 0.4449578 -0.8039182 0.38922057
39 -1.6302372 0.51770383 -0.54201204 -0.13906017 -0.048257064 -0.35778102 0.364531 0.35965058 -0.75276315 0.35550448
2700 -1.5698111 0.5296768 -0.45496285 -0.15859734 0.063176826 -0.31692174 0.26960698 0.4116834 -0.7941151 0.36038667
1474 -1.6304638 0.63107514 -0.30309626 -0.18125953 -0.16201809 -0.40629706 0.08438807 0.3620117 -0.87008375 0.3746135
1164 -1.6233455 0.48393142 -0.4456408 -0.06353397 -0.071744315 -0.28839493 0.07613914 0.39860666 -0.71855646 0.27340966
2500 -1.6398541 0.46533695 -0.566393 -0.1266365 0.06810293 -0.39202654 0.19323012 0.44080743 -0.87375426 0.34168136
1166 -1.5552891 0.51892614 -0.4250237 -0.16963893 -0.0016439516 -0.3649239 0.32258955 0.38404045 -0.73911655 0.26811174
686 -1.7739518 0.5262802 -0.44931358 -0.13120517 0.009694649 -0.25826657 0.1970492 0.38912815 -0.8964384 0.24747378
1019 -1.5281537 0.6079195 -0.4587199 -0.13023272 0.024790838 -0.3843432 0.32607403 0.3614633 -0.83020556 0.27807388
2685 -1.6007597 0.6275136 -0.39275557 -0.15833881 0.054873355 -0.28066018 0.32689267 0.40174842 -0.86097294 0.28912136
1646 -1.4654535 0.5195797 -0.35795632 -0.113501765 0.012690239 -0.30595076 0.31194285 0.35557714 -0.75630236 0.34384543
152 -1.733195 0.56481147 -0.5053141 -0.02534079 -0.03311832 -0.44710875 0.05999332 0.46514615 -0.8128233 0.27571908
2114 -1.5999262 0.514917 -0.525799 -0.0782298 -0.026886053 -0.26729926 0.2997651 0.42506367 -0.8149619 0.3793296
1103 -1.5844904 0.50449866 -0.43558472 -0.22547577 -0.021628309 -0.33659706 0.29015735 0.30346426 -0.75519115 0.3493649
1959 -1.6250252 0.4779368 -0.47588584 -0.23648532 0.064183 -0.33482063 0.1610736 0.4734706 -0.83050716 0.42137235
1569 -1.5103173 0.5720507 -0.5152805 -0.16414636 -0.016009597 -0.3707715 0.223769 0.3869437 -0.78515476 0.3775249
683 -1.6535019 0.47626066 -0.48499256 -0.08941541 -0.035842184 -0.3122525 0.17315733 0.37193242 -0.66137755 0.40000963
1144 -1.445874 0.5117647 -0.41164565 -0.07467249 0.050293136 -0.2883046 0.27346048 0.41981873 -0.7730054 0.34703064
1219 -1.6176146 0.47765967 -0.43652254 -0.008315989 0.024283666 -0.34188908 0.06988051 0.40221617 -0.7737281 0.37062237
1550 -1.6181246 0.48459598 -0.4128341 -0.037520405 -0.069642454 -0.35894546 0.1511975 0.3613381 -0.690099 0.31129125
860 -1.4685518 0.49726838 -0.4372203 -0.14023148 -0.11341537 -0.36739084 0.108609796 0.41889483 -0.79165226 0.39263412
2659 -1.7351371 0.55772173 -0.5424872 -0.20781118 0.09146835 -0.37998834 0.28677794 0.37173742 -0.7827502 0.32046044
1021 -1.5288211 0.49047184 -0.4259135 -0.20156395 0.015997296 -0.27884597 0.24575663 0.40730035 -0.67329186 0.34592912
899 -1.4715066 0.47952592 -0.5157323 -0.14549913 -0.057196062 -0.277366 0.30175695 0.352647 -0.66103905 0.35038966
2122 -1.4942154 0.46959904 -0.3850281 -0.12145543 -0.007209303 -0.2567311 0.25586313 0.38786 -0.70549136 0.26617914
725 -1.5337085 0.42647144 -0.48003295 -0.1319095 1.32978075e-05 -0.34565336 0.18278167 0.37946704 -0.7808485 0.30085343
2597 -1.7645658 0.484196 -0.53174204 -0.16581956 0.07370978 -0.3408213 0.30357024 0.39621568 -0.9246321 0.31122372
366 -1.6764613 0.4770816 -0.59568727 -0.15149088 -0.044041008 -0.3877766 0.32037365 0.4068453 -0.79627085 0.34156272
1587 -1.8327285 0.45253372 -0.5390606 -0.074122086 0.07359406 -0.4164038 0.37206277 0.44369212 -0.8073432 0.4427916
2599 -1.7410107 0.6274204 -0.43370807 -0.21120122 0.09102727 -0.3813783 0.33523467 0.3666084 -0.906827 0.24950811
997 -1.6104635 0.52141976 -0.47107854 -0.21866605 0.008219317 -0.30300468 0.34178466 0.36681712 -0.818591 0.3243052
232 -1.5697024 0.5556227 -0.43597078 -0.0974672 -0.0049139974 -0.28018156 0.21283792 0.37514707 -0.7690246 0.3730278
1820 -1.469182 0.5012253 -0.42865354 -0.1364542 -0.010420765 -0.34880278 0.21601312 0.4430054 -0.711347 0.27806213
1916 -1.9029087 0.5949516 -0.47740868 -0.1324366 -0.09247062 -0.39460257 0.2915674 0.46430245 -0.78582406 0.4127129
996 -1.7924514 0.5260364 -0.4214771 -0.12291066 -0.047673166 -0.31452987 0.14029166 0.40807742 -0.88617873 0.38057947
1040 -1.538031 0.55865055 -0.35592976 -0.16254117 -0.05206163 -0.36255133 0.20660861 0.31368825 -0.76870084 0.27969348
2259 -1.610843 0.52538764 -0.48307338 -0.21680322 0.048592385 -0.37908584 0.28130752 0.388643 -0.70973086 0.36609647
1639 -1.6410208 0.6142543 -0.3429845 -0.16039473 0.040308625 -0.35533294 0.3431366 0.42022878 -0.7510493 0.26855108
2110 -1.6315536 0.49826872 -0.41782606 -0.118078604 -0.040501602 -0.3297288 0.23296641 0.41816092 -0.72390246 0.3657445
2678 -1.5821362 0.7000678 -0.41664514 -0.16519389 0.004646088 -0.3837178 0.32558748 0.4206583 -0.83441275 0.29880354
2516 -1.5045389 0.49163294 -0.35904104 -0.1247624 0.03781008 -0.38684365 0.22987382 0.32126865 -0.7686596 0.32031247
1723 -1.6892363 0.49367633 -0.4474344 -0.052852236 0.0086550545 -0.41541 0.057621263 0.49394128 -0.7317059 0.36918205
171 -1.6488719 0.5359407 -0.42731458 -0.114050016 -0.085635796 -0.27219793 0.27377468 0.38644144 -0.81768656 0.3378095
2605 -1.5919356 0.5846857 -0.3567589 -0.10263297 0.03454167 -0.34309125 0.2836192 0.36961213 -0.8425527 0.25399843
1899 -1.7806448 0.52991694 -0.45046812 -0.20011322 -0.040702347 -0.3804726 0.20782796 0.4124695 -0.7974708 0.33710173
1641 -1.510215 0.53102636 -0.34270182 -0.09040245 -0.0059952727 -0.3362271 0.260773 0.32621965 -0.7502563 0.22418913
1890 -1.4815444 0.50549525 -0.5298162 -0.13771571 -0.008917311 -0.29606497 0.26125184 0.3951368 -0.7062951 0.23577164
1498 -1.5290914 0.59495187 -0.27042046 -0.10627876 -0.04877972 -0.29996413 0.1646608 0.4083513 -0.7309496 0.24043189
670 -1.6521522 0.5250846 -0.44758016 -0.21690711 -0.04460701 -0.2072048 0.18374512 0.4270975 -0.8227814 0.28418785
414 -1.6195759 0.59925574 -0.46079072 -0.2069579 0.07250245 -0.33238414 0.2604091 0.44218284 -0.78617764 0.32091755
1614 -1.490074 0.49132466 -0.5406153 -0.19890521 -0.035391133 -0.3093079 0.36537006 0.34152827 -0.7285405 0.3359748
1017 -1.5944543 0.47373202 -0.60928124 -0.13143241 -0.018834578 -0.3200415 0.3641748 0.35320944 -0.82096505 0.33339834
1086 -1.5676019 0.47076228 -0.46441284 -0.18319175 -0.076213315 -0.31842217 0.2853961 0.38272923 -0.73704827 0.29518464
2486 -1.5896055 0.58226705 -0.39021918 -0.14021675 -0.006396952 -0.3759741 0.3356468 0.43090686 -0.7961901 0.32595897
2340 -1.6522564 0.5746056 -0.44146845 -0.15626918 0.060976893 -0.34233028 0.25493428 0.36127144 -0.71369576 0.42112422
2270 -1.6447281 0.48205647 -0.49061477 -0.04598701 -0.0069082757 -0.37356636 0.19223624 0.4136089 -0.8225066 0.28393412
2466 -1.5265644 0.5386448 -0.43007812 -0.21005633 -0.021953935 -0.36820033 0.21757856 0.33105674 -0.72526294 0.29183012
2169 -1.4453875 0.5682752 -0.33562955 -0.14237463 -0.056174412 -0.27154925 0.29359227 0.39888245 -0.7354144 0.25062105
79 -1.5600095 0.6503901 -0.36734676 -0.15439604 -0.028842818 -0.34440905 0.43371308 0.3662844 -0.76568574 0.35715538
1724 -1.5979217 0.5025467 -0.41472182 -0.08483917 -0.06368639 -0.3590715 0.22202568 0.38895106 -0.7034043 0.3542371
1662 -1.4631882 0.51158345 -0.40576264 -0.1320037 0.04487711 -0.26007387 0.3375178 0.38499963 -0.72953767 0.28501025
1310 -1.7506574 0.6507652 -0.5884941 -0.18740168 -0.028577235 -0.3197402 0.27750805 0.50262207 -0.92324525 0.3264103
2000 -1.686287 0.5199379 -0.512307 -0.22731437 0.03254673 -0.30999762 0.25158855 0.33823198 -0.8312386 0.30598772
2179 -1.4648545 0.42596465 -0.39145914 -0.07062021 -0.019504432 -0.2023043 0.32081598 0.39200145 -0.71586126 0.31693485
195 -1.8314841 0.6182175 -0.42281044 -0.11436582 0.15459464 -0.27688015 0.27953672 0.43570438 -0.7713234 0.4374642
1861 -1.5494868 0.4933251 -0.44072348 -0.1172004 0.06346804 -0.2846792 0.36273825 0.3664838 -0.69283414 0.2814009
1387 -1.5238297 0.49076635 -0.45673195 -0.19848539 -0.022686388 -0.36199912 0.31065997 0.42531908 -0.7639409 0.36861348
2706 -1.568469 0.5433186 -0.4296019 -0.21295643 0.05253284 -0.245533 0.34856275 0.3933133 -0.74042815 0.39951158
1627 -1.5404524 0.5220758 -0.44225147 -0.15313447 0.0432393 -0.29264423 0.3854839 0.37271845 -0.747592 0.35467613
1772 -1.5237099 0.59461266 -0.40416443 -0.10982376 -0.0046518133 -0.34742197 0.17798553 0.45264322 -0.7246037 0.27059314
892 -1.5672444 0.5082361 -0.46592632 -0.17068134 0.02960801 -0.27183536 0.39355808 0.39815247 -0.8410139 0.2470673
1556 -1.6265064 0.5383604 -0.38962874 -0.27226245 -0.027929293 -0.37086913 0.16342077 0.3430708 -0.682314 0.3953523
1567 -1.574021 0.5737791 -0.41393664 -0.14254162 -0.076052785 -0.36307648 0.31801417 0.37441877 -0.7673011 0.3299773
1547 -1.6092451 0.41937494 -0.4449045 -0.12356061 -0.10092365 -0.2969716 0.27009568 0.43983656 -0.7248474 0.33660883
2574 -1.5315711 0.55692905 -0.45558146 -0.15718758 -0.043383986 -0.2789935 0.22813983 0.43960005 -0.77149093 0.39042068
1373 -1.6752429 0.57799286 -0.4863359 -0.21733086 -0.020806713 -0.2807284 0.28720644 0.38126537 -0.75729036 0.25602224
1799 -1.4958469 0.5223793 -0.52558285 -0.07138532 0.06579601 -0.3398885 0.3394857 0.40807036 -0.7736367 0.41291544
1160 -1.4491538 0.44960317 -0.4401373 -0.1943432 -0.022911463 -0.25905332 0.27209902 0.4430228 -0.61136675 0.32191497
2711 -1.5975432 0.5669992 -0.3788051 -0.07493461 0.035493124 -0.36966804 0.26487562 0.4045861 -0.8483042 0.2610991
1983 -1.3960395 0.34048903 -0.3847554 -0.12115342 0.052221105 -0.2403516 0.18768892 0.4158704 -0.6687017 0.26089224
2579 -1.455552 0.46682468 -0.48006067 -0.11060476 0.004840285 -0.2762783 0.30750677 0.3192709 -0.73386675 0.26781556
1385 -1.5467759 0.47946426 -0.41984552 -0.20796391 0.022868676 -0.26901084 0.2597734 0.4182613 -0.66453135 0.35546616
2105 -1.5128418 0.5005681 -0.38654166 -0.089485034 0.039844796 -0.31616673 0.19142793 0.34689894 -0.7962868 0.28667396
657 -1.4732572 0.574019 -0.33824396 -0.16796573 -0.039656635 -0.3149497 0.33032537 0.4083061 -0.6828207 0.2988836
807 -1.6282074 0.62603515 -0.33288494 -0.13171637 0.03762407 -0.32760814 0.30144352 0.3759538 -0.7814785 0.29843307
2356 -1.4026662 0.5573589 -0.2632961 -0.046789538 0.00019940092 -0.35507965 0.14138158 0.31293535 -0.6274855 0.3118699
1800 -1.4626193 0.46382478 -0.45447618 -0.07925437 -0.0998027 -0.27056307 0.18012041 0.4030183 -0.7226753 0.25450087
180 -1.5343006 0.5623306 -0.45541814 -0.15911572 -0.003864734 -0.28624895 0.24626109 0.366946 -0.73412335 0.32571274
1244 -1.4624205 0.4429088 -0.48317218 -0.16338423 0.04834971 -0.2464827 0.28188 0.3405893 -0.7323034 0.2827677
1867 -1.4883646 0.53099513 -0.32593727 -0.12490782 -0.008469099 -0.24270897 0.2780521 0.34381706 -0.74259347 0.30787548
1135 -1.7041409 0.56791073 -0.36182255 -0.07641427 -0.04310172 -0.3597884 0.20520759 0.35762927 -0.7126669 0.28926885
1940 -1.5469787 0.47857434 -0.52103364 -0.1359019 0.060618624 -0.44704863 0.17274791 0.39780766 -0.6379816 0.3510608
1075 -1.4580785 0.5562901 -0.38755885 -0.20512451 0.08543762 -0.31033158 0.31392488 0.4106411 -0.77876866 0.31884238
978 -1.6226472 0.53134876 -0.40882203 -0.12068992 0.028444052 -0.33016855 0.3147452 0.32367706 -0.8097332 0.33172962
2376 -1.5600177 0.42783386 -0.51856387 -0.20932381 -0.00018595633 -0.21727155 0.21199934 0.39223498 -0.69773227 0.31343055
2661 -1.5878597 0.48278424 -0.4253614 -0.19463882 0.004953518 -0.3204858 0.27309406 0.33670527 -0.78349537 0.3534521
1335 -1.5924739 0.55347806 -0.45030874 -0.12697564 -0.043644663 -0.28113568 0.20866346 0.35455653 -0.8694668 0.23400763
42 -1.4812895 0.4451124 -0.45295173 -0.16588649 -0.08256399 -0.41152415 0.18490104 0.36488658 -0.68255836 0.3225695
2575 -1.5016057 0.44943175 -0.49979344 -0.16903982 -0.054230124 -0.22221568 0.33979866 0.43477586 -0.6085498 0.3312811
1396 -1.753845 0.49122965 -0.42929757 -0.19728073 0.031795416 -0.2126272 0.28956038 0.44289416 -0.8231247 0.43387774
2504 -1.4799663 0.6149481 -0.39304247 -0.16785118 0.011139459 -0.3160314 0.34872004 0.4090601 -0.7267538 0.25279257
2501 -1.6067451 0.48676 -0.4581478 -0.07781322 -0.062392816 -0.31384453 0.25232726 0.38964245 -0.69617355 0.33178848
2209 -1.5758613 0.52948594 -0.2954565 -0.22009821 -0.20086083 -0.43741706 -0.11826082 0.27351075 -0.96032816 0.40987992
2255 -1.5733641 0.5312543 -0.449586 -0.16187757 -0.050442405 -0.24760668 0.2583884 0.3339394 -0.7118079 0.33900276
1552 -1.488606 0.5675345 -0.3299926 -0.20462362 -0.045388613 -0.2505272 0.27781218 0.34441015 -0.70672446 0.3050382
2329 -1.548924 0.4854118 -0.51602995 -0.16389376 -0.066323645 -0.26877728 0.22074892 0.3983065 -0.68932515 0.30114874
932 -1.6987649 0.48544312 -0.5331799 -0.16825244 0.025003 -0.32498103 0.26511398 0.4581563 -0.7946375 0.4219623
2787 -1.5501677 0.5699229 -0.407375 -0.116930604 -0.017459022 -0.3948009 0.33040217 0.32792252 -0.77541536 0.26863328
353 -1.5203266 0.5746522 -0.3392678 -0.16012757 -0.008698561 -0.32643908 0.3494392 0.33495024 -0.7646017 0.3109918
1836 -1.5178926 0.4479086 -0.41229162 -0.14388877 0.05939649 -0.32164308 0.3552105 0.31644806 -0.7866289 0.31584185
301 -1.6334808 0.61841667 -0.3955168 -0.08966561 0.042317204 -0.3347752 0.3766698 0.4742096 -0.81217426 0.39287722
2677 -1.7053583 0.4884676 -0.48287618 -0.13962647 -0.025295518 -0.32587877 0.25740898 0.46900094 -0.88007873 0.37276885
16 -1.5771667 0.44962668 -0.4109047 -0.09531064 -0.035373867 -0.39217463 0.06480265 0.3891346 -0.78031474 0.31605968
2619 -1.46981 0.53739 -0.43783715 -0.19280356 0.018027255 -0.21492293 0.35431403 0.38595945 -0.65555423 0.2677426
2342 -1.5072023 0.4076562 -0.33937296 -0.106242046 -0.013457012 -0.27307063 0.21083863 0.38707158 -0.6655025 0.20292997
910 -1.7187853 0.625426 -0.37570035 -0.119190745 0.01734442 -0.33866096 0.38295326 0.42470822 -0.8467289 0.29101795
2197 -1.630557 0.5165855 -0.5043658 -0.18233727 -0.02080974 -0.34887442 0.21845195 0.34748232 -0.7910613 0.27330783
719 -1.4821669 0.51624644 -0.40498364 -0.16008118 -0.058979582 -0.23247309 0.38666102 0.3555474 -0.7501871 0.24386817
2108 -1.5425195 0.5234712 -0.4393446 -0.15651682 -0.009532309 -0.37065995 0.30673635 0.35323983 -0.73269635 0.31230402
1542 -1.7107624 0.5232171 -0.5071846 -0.16771194 -7.959852e-05 -0.3454308 0.31728798 0.46261692 -0.76568186 0.29124707
458 -1.6318994 0.43761387 -0.47496134 -0.15820926 -0.035630487 -0.34891686 0.31711963 0.31434286 -0.68031895 0.26529378
67 -1.5948676 0.48978823 -0.5044348 -0.194809 -0.03097871 -0.23059773 0.20823519 0.361395 -0.6409217 0.273456
1995 -1.6540751 0.50097954 -0.4113565 -0.20093237 -0.09562765 -0.18073887 0.29447863 0.43496966 -0.7727791 0.31252217
1696 -1.6884607 0.47760296 -0.44420445 -0.14911343 0.041307155 -0.37118378 0.22977448 0.3708591 -0.76191694 0.31360713
1169 -1.4795828 0.60740864 -0.3479745 -0.21789315 -0.039994877 -0.29979607 0.2813609 0.35071033 -0.7720252 0.2701474
977 -1.4672275 0.54137516 -0.2933586 -0.1164557 -0.073713504 -0.32154322 0.24436066 0.39324299 -0.7025243 0.2912561
1774 -1.5600746 0.5292379 -0.49966604 -0.13932271 0.006585183 -0.28406426 0.2662541 0.42177567 -0.82682383 0.27338293
1599 -1.54239 0.50404143 -0.48631367 -0.2050403 0.041719884 -0.3065663 0.28677014 0.4043704 -0.75059074 0.33024788
175 -1.5608575 0.5589987 -0.37983426 0.012309075 -0.07954481 -0.4138472 0.09100473 0.48997065 -0.6748741 0.31455243
1602 -1.6937102 0.5620013 -0.4137656 -0.23369478 -0.0689713 -0.26545355 0.1891796 0.35527816 -0.7901965 0.34183496
1336 -1.3684167 0.47536996 -0.393235 -0.12614012 0.034958582 -0.23650274 0.29809225 0.34033456 -0.72462714 0.31120962
380 -1.4344805 0.4111092 -0.34904677 -0.064741775 -0.05578186 -0.2246065 0.14159143 0.35666868 -0.58866906 0.23278634
1436 -1.6914561 0.4804601 -0.42191848 -0.23718998 0.027458698 -0.28879476 0.22589992 0.35472962 -0.8123027 0.38340944
216 -1.6135269 0.60701877 -0.35285082 -0.18541792 0.020094031 -0.36469704 0.35138643 0.42737183 -0.7734379 0.32493353
1915 -1.5878365 0.3411593 -0.5653259 -0.22698838 -0.06949449 -0.33892235 0.12639032 0.4330939 -0.5876021 0.19173017
816 -1.5371181 0.43956795 -0.46634322 -0.06311627 -0.019338548 -0.28267393 0.23480937 0.41841093 -0.6421033 0.26767468
2323 -1.8109298 0.3528616 -0.17854337 -0.35922614 -0.09406009 -0.13260233 0.35258695 0.40336555 -0.80909306 0.59499896
1468 -1.515711 0.59729236 -0.387878 -0.13367186 -0.04193887 -0.3567631 0.32159942 0.3430972 -0.8007294 0.25466666
1606 -1.4510024 0.47647715 -0.47096145 -0.15212408 0.00751858 -0.3041201 0.27304456 0.33488324 -0.7841868 0.2987268
925 -1.5411166 0.49527228 -0.5006274 -0.20114447 -0.02441807 -0.340694 0.33503345 0.3241615 -0.76997554 0.31344926
1451 -1.362679 0.44793147 -0.36709318 -0.19420621 -0.022665286 -0.2611186 0.30382875 0.25113252 -0.72983557 0.2543032
2607 -1.5374551 0.49675503 -0.38032463 -0.11309182 0.07555837 -0.2744718 0.23865205 0.31489244 -0.7178679 0.27966273
260 -1.6691071 0.57183665 -0.43239066 -0.17765561 -0.056378204 -0.44978365 0.18952176 0.4705082 -0.7303233 0.4051288
2162 -1.6574792 0.57123184 -0.4652624 -0.057690743 0.030748522 -0.3118709 0.20133133 0.3640754 -0.7485599 0.30497944
604 -1.5343369 0.4844401 -0.36944965 -0.16636725 -0.009956898 -0.41067755 0.14463954 0.41654834 -0.65301657 0.35123593
78 -1.516883 0.5066345 -0.46680847 -0.19072387 0.033413805 -0.26052657 0.22350024 0.39744562 -0.7600563 0.2835546
1175 -1.4450649 0.51098454 -0.38954496 -0.17780156 -0.027585829 -0.322669 0.26341727 0.3916316 -0.6933717 0.34360987
975 -1.4108282 0.59278125 -0.34108517 -0.13845965 0.057237312 -0.26363277 0.27738085 0.35474473 -0.7613861 0.28131163
349 -1.55443 0.5619345 -0.4276608 -0.104723684 0.027909992 -0.30862862 0.25853232 0.43722725 -0.7400159 0.3596567
1300 -1.3768417 0.4361261 -0.47038063 -0.1342291 -0.036449946 -0.2767869 0.24367988 0.3190744 -0.72989565 0.22848304
2204 -1.5893718 0.5393022 -0.50509626 -0.11706933 0.09484567 -0.26628295 0.27059782 0.4748485 -0.71190214 0.30253974
2676 -1.5952164 0.55826926 -0.40286404 -0.1630119 -0.050555684 -0.3075837 0.22976594 0.3278777 -0.7200196 0.32570392
1593 -1.4174387 0.50487685 -0.41523814 -0.17678641 -0.009187783 -0.24885385 0.27337238 0.37863693 -0.7498521 0.23679852
1927 -1.4486234 0.44176918 -0.353764 -0.105887316 0.034108616 -0.30792734 0.2551556 0.3102836 -0.70278996 0.29929674
1484 -1.5661361 0.5754975 -0.4271242 -0.23613267 -0.05482281 -0.33119684 0.23214197 0.41707855 -0.70687264 0.2844367
1761 -1.4047279 0.5070707 -0.37886414 -0.16006471 0.0542157 -0.22383454 0.31446603 0.34602007 -0.67728806 0.3040182
318 -1.6150924 0.49720892 -0.56779 -0.08956065 -0.02913805 -0.27047455 0.27010268 0.3478212 -0.87093705 0.37279364
2612 -1.5554063 0.47434098 -0.5148561 -0.19659539 -0.012475282 -0.31913042 0.37406448 0.37892345 -0.71808034 0.36619192
2409 -1.5163792 0.4509611 -0.5504842 -0.04590367 -0.02199617 -0.35347393 0.28308344 0.3132113 -0.8405671 0.40920216
534 -1.3081716 0.40009546 -0.3771703 -0.1439441 -0.060021993 -0.18837547 0.20603155 0.39538366 -0.6157768 0.2865864
333 -1.5301117 0.41681078 -0.41037935 -0.05321931 -0.04927142 -0.39096773 0.20105594 0.3912083 -0.7370864 0.2585092
1102 -1.4075493 0.46548325 -0.38596237 -0.14087065 0.00697131 -0.37292302 0.23018192 0.3790574 -0.6156041 0.31760865
1165 -1.5456674 0.59117925 -0.31448296 -0.18918288 -0.023774015 -0.3625633 0.31992528 0.32985878 -0.70420986 0.23400907
1756 -1.4009798 0.43096986 -0.427091 -0.06536507 -0.073739775 -0.23450519 0.19324647 0.40050933 -0.58894235 0.29865375
578 -1.6721226 0.46514493 -0.4614008 -0.22881658 0.027819192 -0.34651044 0.26998731 0.40798438 -0.7033466 0.36805588
50 -1.6250014 0.45540202 -0.4820265 -0.122228995 0.009578916 -0.31218317 0.27464753 0.44315273 -0.7776382 0.32053557
1338 -1.638344 0.4761177 -0.45355636 -0.18417898 -0.0383922 -0.28984246 0.1880803 0.43562597 -0.77661306 0.2738732
561 -1.4438211 0.4415878 -0.39827642 -0.18877178 -0.0687241 -0.28631437 0.20767495 0.38974935 -0.7233088 0.30372915
820 -1.4586546 0.45034972 -0.4171706 -0.1413728 -0.04724286 -0.2699619 0.31302536 0.38543776 -0.715407 0.31750908
513 -1.714742 0.4081921 -0.43854395 -0.08538725 0.01895794 -0.3472979 0.23625994 0.42021215 -0.6940361 0.3557515
1066 -1.4440026 0.4196613 -0.4157746 -0.11428604 -0.07497529 -0.31608772 0.14378695 0.32043025 -0.6952676 0.34223711
1248 -1.4035327 0.37548977 -0.43172792 -0.19809034 -0.046035264 -0.25301418 0.1618765 0.39543736 -0.69660515 0.2713001
1961 -1.5167342 0.4717643 -0.4516604 -0.09755778 -0.01658053 -0.33250168 0.30728057 0.32147327 -0.7566932 0.31428555
348 -1.5819893 0.5612659 -0.39417973 -0.14985779 -0.0410637 -0.35595363 0.2801852 0.43745026 -0.7177254 0.29892075
2431 -1.4413949 0.4450203 -0.5450433 -0.16360079 0.085602485 -0.27482808 0.2719617 0.37460837 -0.720959 0.3527215
658 -1.4094528 0.42954248 -0.46803492 -0.19873008 -0.0060863243 -0.30484498 0.30723482 0.36464107 -0.65072334 0.31982246
1022 -1.5458536 0.45901152 -0.54250085 -0.10315595 0.013614894 -0.2924701 0.17805676 0.39209265 -0.86710924 0.41697994
179 -1.5119841 0.5479103 -0.429011 -0.19264475 0.034042794 -0.2912468 0.2613991 0.42592388 -0.80073917 0.36200535
563 -1.3596475 0.43783423 -0.3831286 -0.058481485 0.05638121 -0.3341976 0.2599954 0.3715712 -0.60732955 0.21971852
1676 -1.4419696 0.43110824 -0.46588776 -0.126913 0.004317719 -0.28695488 0.33750048 0.31082758 -0.68059623 0.2984323
915 -1.424648 0.46731997 -0.39450568 -0.16775005 0.031876553 -0.30278713 0.28616545 0.31320933 -0.6407499 0.32439017
130 -1.6261885 0.4036681 -0.47919866 -0.11947704 -0.107240506 -0.27104127 0.19258507 0.44154775 -0.83257484 0.20174077
346 -1.5456818 0.47435138 -0.38223216 -0.11780769 -0.04426094 -0.34211197 0.27797657 0.37463388 -0.7083411 0.21648154
1523 -1.5704031 0.46456832 -0.50511324 -0.124252684 -0.019519776 -0.29666469 0.33078027 0.42276317 -0.7027828 0.36830452
66 -1.5565889 0.5179212 -0.4612257 -0.21294078 0.04616607 -0.22839846 0.20663808 0.31865555 -0.82522565 0.296725
1953 -1.4692844 0.47342658 -0.48600918 -0.17339472 0.002321067 -0.3524825 0.15190268 0.40104118 -0.75804305 0.37861475
2554 -1.5367558 0.59500724 -0.48560145 -0.10893203 0.08234451 -0.3236221 0.38046676 0.39887014 -0.7000397 0.39988524
99 -1.4423416 0.49852562 -0.4145066 -0.119863786 0.012418408 -0.19628903 0.27362952 0.3665643 -0.7280479 0.33334735
881 -1.4113799 0.47758633 -0.39947483 -0.06331055 -0.030996468 -0.2390238 0.18881106 0.381183 -0.6610056 0.28085643
277 -1.658427 0.5669872 -0.47124037 -0.21126257 0.0409561 -0.22255301 0.25779614 0.4184903 -0.8078816 0.34928444
134 -1.413163 0.5485942 -0.29113698 -0.15293495 0.022678532 -0.22586852 0.33247936 0.31748036 -0.67886394 0.23091714
217 -1.5597184 0.43276718 -0.43566775 -0.096981876 -0.027479986 -0.24550925 0.24787997 0.36804727 -0.8299697 0.32879946
2272 -1.4355494 0.40977216 -0.46691394 -0.06338876 0.03662374 -0.3204167 0.09348239 0.2602145 -0.61873186 0.17108396
2512 -1.3175961 0.4790451 -0.32542428 -0.07353299 0.054973688 -0.16382892 0.3222825 0.3525244 -0.612384 0.2693362
2539 -1.4888167 0.5102605 -0.41533205 -0.19749933 0.09564345 -0.30619875 0.23133552 0.42634684 -0.79719853 0.36867717
1231 -1.391698 0.50401235 -0.31823 -0.11651161 -0.028795317 -0.31810603 0.13173637 0.3522389 -0.6777955 0.26384827
1181 -1.4192226 0.49356437 -0.30723977 -0.19863975 0.02281801 -0.3019441 0.25325978 0.33905992 -0.7075558 0.30891532
916 -1.5745082 0.5120873 -0.43113062 -0.14839213 0.021289073 -0.2775842 0.24372676 0.37325683 -0.6749444 0.25886935
1933 -1.4551475 0.46224368 -0.29893005 -0.18534766 0.048356973 -0.3063281 0.25658077 0.27022666 -0.6613895 0.30061254
1937 -1.4780287 0.5673431 -0.28893024 -0.18182026 -0.020429002 -0.27415594 0.24788797 0.38397506 -0.6716652 0.31331137
2571 -1.5891726 0.54928905 -0.41022143 -0.009058988 0.032049574 -0.4012269 0.20650919 0.43515638 -0.66068834 0.22096212
1382 -1.4807074 0.5329134 -0.41830194 -0.11756567 0.06575613 -0.28969055 0.26697308 0.412429 -0.6866342 0.28511673
734 -1.4431058 0.4433679 -0.49866396 -0.1213693 -0.008530445 -0.2676829 0.26438716 0.42239726 -0.8087424 0.37898102
1142 -1.3888911 0.40151408 -0.39137352 -0.1062179 0.010306805 -0.32368124 0.18699361 0.41642573 -0.6798441 0.34560642
1015 -1.4913214 0.51153964 -0.41311133 -0.13761257 0.0053261565 -0.32254845 0.30512345 0.3700041 -0.6985956 0.27716452
2523 -1.3860303 0.4112275 -0.4172046 -0.041632205 0.009665913 -0.27733815 0.14113745 0.3355961 -0.6969226 0.25437623
334 -1.3986137 0.50201344 -0.32338482 -0.2070564 -0.013847468 -0.3249694 0.30154586 0.3674512 -0.7050889 0.23374236
53 -1.3655214 0.42939878 -0.4135032 -0.119921304 0.057101704 -0.3101266 0.24756904 0.35258418 -0.7625523 0.3522584
2284 -1.3836352 0.5414946 -0.21755078 -0.2043607 -0.24017093 -0.35645467 -0.17360228 0.23675838 -0.92208695 0.44058496
2308 -1.3953096 0.4719042 -0.5199442 -0.06551263 0.08439309 -0.22129591 0.23505065 0.34400034 -0.66167957 0.32693356
117 -1.2952682 0.348324 -0.37248483 -0.20981416 0.060322557 -0.100245 0.18151407 0.42679146 -0.55153596 0.20107032
1224 -1.4186071 0.546548 -0.42005336 -0.13522403 0.017807744 -0.3365909 0.32575497 0.2965217 -0.7277514 0.29809904
283 -1.4251645 0.53246486 -0.36331698 -0.18230416 0.05699397 -0.3205249 0.26885757 0.37035003 -0.6661468 0.2487905
2261 -1.5806262 0.49860626 -0.32668424 -0.19875088 -0.22214393 -0.45060584 -0.11772887 0.28109446 -1.031355 0.3874419
1077 -1.2825781 0.40978444 -0.4219071 -0.07102441 0.03622917 -0.33149746 0.24562036 0.31750757 -0.65433055 0.234222
1685 -1.5250672 0.4787163 -0.4679301 -0.14089996 0.03389542 -0.3987384 0.18874799 0.34830806 -0.6926944 0.34645784
169 -1.4890422 0.52616924 -0.36069304 -0.070146024 0.0052158507 -0.31805268 0.24973972 0.42693383 -0.787805 0.31685346
681 -1.4555621 0.50163597 -0.419323 -0.15018684 0.009069329 -0.34073803 0.2226783 0.277041 -0.67332876 0.25039816
746 -1.543445 0.4017443 -0.3805445 -0.13186033 -0.011317964 -0.2461466 0.17834009 0.36467713 -0.61138695 0.25065595
928 -1.2794507 0.36660773 -0.35930026 -0.14315166 0.0149856275 -0.2280979 0.1675163 0.29066047 -0.6533828 0.27884328
2151 -1.3610345 0.45793664 -0.3311813 -0.14586298 0.052199956 -0.3318502 0.19180882 0.34577912 -0.70248824 0.25765926
1778 -1.4646834 0.42978787 -0.40866837 -0.16630411 0.017416656 -0.22744924 0.26053113 0.3002252 -0.7096602 0.23996636
240 -1.3956286 0.56964505 -0.34210786 -0.20739377 0.026239885 -0.24838123 0.26698047 0.34377825 -0.7309154 0.24461004
1798 -1.4702018 0.46507707 -0.45119458 -0.18147278 -0.01692969 -0.30010465 0.24743788 0.28467587 -0.7350466 0.34982848
1384 -1.5688297 0.5353201 -0.42160612 -0.08810122 -0.09627425 -0.23771894 0.34532398 0.40615872 -0.8287523 0.30256644
986 -1.3531791 0.4115248 -0.40414372 -0.14271767 0.017555147 -0.16227894 0.1753841 0.3041524 -0.5918891 0.2910535
2073 -1.6603998 0.46793017 -0.56214327 -0.09048519 0.06630954 -0.36311996 0.14465088 0.34245777 -0.81876266 0.34960455
1589 -1.4120158 0.3651456 -0.38698235 -0.052471094 -0.019261746 -0.21309565 0.09247087 0.32860306 -0.58786523 0.17930922
848 -1.4200443 0.43517965 -0.4488778 -0.119267344 -0.013955624 -0.30728862 0.20714273 0.3355749 -0.76744187 0.2952181
2101 -1.5162947 0.46312606 -0.39487377 -0.11572981 0.048092045 -0.32442254 0.28028643 0.33413965 -0.81524223 0.25638086
1264 -1.337665 0.5286141 -0.24045214 -0.11431679 0.0902315 -0.30305701 0.22863746 0.3342453 -0.6607668 0.2951449
612 -1.2991825 0.43385324 -0.35384643 -0.094111964 -0.046745736 -0.18846986 0.19273639 0.3024598 -0.6883725 0.29707137
1905 -1.3957759 0.51481634 -0.3277925 -0.13459606 0.044775646 -0.26444083 0.29776672 0.26464748 -0.669355 0.19476153
2124 -1.4784988 0.5219453 -0.51596314 -0.16219106 -0.024378536 -0.22107826 0.34863028 0.3524288 -0.7500635 0.30303457
1179 -1.2464184 0.39654192 -0.25639656 -0.06967802 -0.016934888 -0.21303971 0.2780813 0.32473487 -0.6621072 0.20702577
582 -1.4336727 0.46105653 -0.34980148 -0.18404023 -0.06179239 -0.37624246 0.21976759 0.3409106 -0.69714403 0.24796337
474 -1.3736322 0.41605532 -0.38325867 -0.15539975 -0.08519619 -0.31730995 0.23573053 0.41894796 -0.6012073 0.25032356
1513 -1.3332907 0.47836885 -0.28640723 -0.10197715 0.049800303 -0.33036056 0.2438045 0.3449513 -0.6848434 0.28956974
1183 -1.417517 0.45412016 -0.4036222 -0.1925505 -0.029033897 -0.2550664 0.1886598 0.30485833 -0.64180577 0.29484403
565 -1.4415184 0.4827221 -0.42606792 -0.093543686 -0.038216062 -0.18290251 0.24861217 0.33127844 -0.6651746 0.24782422
1404 -1.6012796 0.5087037 -0.4784973 -0.18917473 0.004139806 -0.27140072 0.33121562 0.3760365 -0.84575075 0.380241
368 -1.3440728 0.35848975 -0.3824671 -0.13455409 0.045842227 -0.28955913 0.15234293 0.33491528 -0.5942745 0.28912687
2828 -1.4000899 0.46538264 -0.44356543 -0.22047988 0.0901602 -0.25954235 0.27031592 0.33331186 -0.73119915 0.30389562
1356 -1.2429063 0.37995124 -0.3372848 -0.08188705 -0.044317693 -0.18536943 0.21162488 0.2502087 -0.6268198 0.24619314
1885 -1.3804203 0.4664224 -0.45982686 -0.112569734 -0.008567726 -0.3059384 0.34230974 0.27933487 -0.68805104 0.31395498
1817 -1.364882 0.46345356 -0.39969638 -0.10707893 -0.022963263 -0.25113708 0.27236658 0.34117606 -0.6246777 0.33081853
2757 -1.4375733 0.45924947 -0.39857155 -0.15307963 0.031983048 -0.25000703 0.16782324 0.30055928 -0.7232245 0.33284655
1043 -1.487365 0.5367831 -0.5074758 -0.18016772 0.05826005 -0.26071686 0.24752209 0.41297016 -0.7241016 0.3105882
782 -1.369625 0.48864123 -0.35560355 -0.12648195 0.0600422 -0.28332898 0.24779087 0.34350428 -0.70831835 0.31522188
106 -1.4242063 0.43713754 -0.384352 -0.11425511 0.018338487 -0.3182732 0.24870591 0.29554144 -0.65854216 0.34268266
443 -1.3920048 0.37839258 -0.43161064 -0.1392986 0.02321661 -0.24238405 0.213816 0.36155182 -0.6205731 0.28323683
717 -1.452658 0.431072 -0.40468973 -0.096163504 0.016510095 -0.33167517 0.25399768 0.3892498 -0.7358378 0.24124435
2012 -1.2539194 0.41536754 -0.3645134 -0.048568293 0.004859386 -0.28579336 0.1263647 0.34117916 -0.6030974 0.21394314
1004 -1.3798971 0.44896543 -0.3221795 -0.109037586 -0.027498603 -0.22365391 0.31740618 0.30174237 -0.6946959 0.283444
2624 -1.4583244 0.48030943 -0.40194803 -0.17101665 0.0055956165 -0.32280207 0.19177721 0.31006074 -0.6835363 0.2765512
1506 -1.4239625 0.43906802 -0.44736853 -0.114039026 0.04585845 -0.1894938 0.25290757 0.35178 -0.6108308 0.3083613
2807 -1.4964331 0.5567214 -0.46737507 -0.1519752 -0.0034586848 -0.25210834 0.24588363 0.3927574 -0.7012661 0.30321148
1312 -1.4334619 0.3775555 -0.51971763 -0.20283817 -0.061033126 -0.22380282 0.1844372 0.3775947 -0.6674218 0.34652427
2295 -1.2912788 0.386065 -0.36776224 -0.068175994 0.059101548 -0.29397634 0.17832242 0.28085873 -0.63254946 0.3115938
2119 -1.4604988 0.4309515 -0.35040888 -0.1034383 -0.0427326 -0.30973178 0.13931358 0.39508387 -0.70741254 0.19050634
2095 -1.374668 0.4499993 -0.38870022 -0.08892594 -0.02195575 -0.26610178 0.20422563 0.4095171 -0.759055 0.25933674
2024 -1.3688262 0.47227535 -0.47257262 -0.10555512 -0.04256156 -0.27458328 0.18862599 0.3730057 -0.67025524 0.262326
2358 -1.4735363 0.44722754 -0.40554923 -0.08509954 0.023110332 -0.27814037 0.2921959 0.2908718 -0.65606105 0.2865246
2315 -1.5231954 0.47760814 -0.34082046 -0.073615886 0.049592324 -0.29849407 0.23562664 0.37961248 -0.76449394 0.25577947
2689 -1.3552519 0.42642713 -0.36317345 -0.15292476 0.034192707 -0.30621788 0.0726289 0.33965826 -0.67466974 0.31463504
1470 -1.4562484 0.40869534 -0.37519532 -0.07723223 -0.055382792 -0.23941158 0.115914114 0.2963044 -0.673833 0.24419571
22 -1.4061388 0.42030206 -0.39827594 -0.11612022 0.002551702 -0.1191186 0.1514315 0.2971607 -0.6352251 0.29896194
113 -1.4414876 0.43997428 -0.34795633 -0.1814065 0.07244022 -0.22309884 0.34014788 0.29459846 -0.6035733 0.2705743
2094 -1.424389 0.49422058 -0.37731716 -0.13391009 -0.028210185 -0.2845833 0.19857882 0.3907237 -0.6352893 0.27877054
509 -1.6764524 0.5197473 -0.45557958 -0.12004939 0.02318948 -0.38818875 0.354188 0.44856226 -0.84991634 0.25330636
1400 -1.2443323 0.35225093 -0.43759805 -0.16754936 -0.052836575 -0.27345842 0.1532365 0.3200345 -0.62947965 0.2642969
1535 -1.3487233 0.34851566 -0.3410281 -0.109753504 -0.060738094 -0.23512207 0.14173892 0.38275048 -0.5494174 0.2977095
2357 -1.3072182 0.4146057 -0.38441834 -0.12328507 -0.011558061 -0.26803228 0.18342087 0.30825755 -0.63224673 0.23264383
40 -1.4427539 0.52353954 -0.31886286 -0.17168249 0.018239265 -0.23381913 0.27865452 0.37747055 -0.69180083 0.23733778
398 -1.3837731 0.36455497 -0.42771474 -0.040019847 -0.016212579 -0.25729752 0.21119224 0.32959074 -0.6553396 0.327048
2314 -1.2899932 0.4882498 -0.2853287 -0.08421268 0.028122254 -0.31371582 0.23931041 0.37298506 -0.5908626 0.25643295
466 -1.4577432 0.40878424 -0.36983284 -0.107088216 0.0029726683 -0.25874683 0.18453346 0.4091398 -0.69627374 0.31081215
1109 -1.3215041 0.38383797 -0.35507622 -0.16197148 0.01982964 -0.27967757 0.1333737 0.3500825 -0.6115652 0.28895703
2737 -1.623436 0.51829183 -0.4849642 -0.21208394 0.017066494 -0.32596955 0.28606704 0.2897484 -0.79386926 0.3327286
144 -1.5906451 0.46680397 -0.46145168 -0.08959747 -0.002429007 -0.2704172 0.16320296 0.40773225 -0.6813666 0.31042096
2783 -1.5502887 0.4087429 -0.41259122 -0.10370214 -0.030953677 -0.26594168 0.28269282 0.35644427 -0.69136655 0.32521513
1357 -1.3226632 0.5148227 -0.27268443 -0.1301687 -0.019614758 -0.29781142 0.31530216 0.3233734 -0.6293585 0.19219558
956 -1.4914472 0.55698997 -0.3036448 -0.1733325 -0.0026307215 -0.28219047 0.24603039 0.3425708 -0.7822032 0.25514385
2405 -1.5385394 0.38222766 -0.4987816 -0.13363975 0.013732024 -0.30485174 0.16724788 0.24150209 -0.7155254 0.15106502
2751 -1.3106939 0.42388332 -0.3582656 -0.123073414 0.038015842 -0.23921321 0.100824215 0.28024152 -0.58234364 0.2924763
2001 -1.4098427 0.50146556 -0.33519268 -0.012266243 -0.03053775 -0.30663216 0.16922157 0.3737138 -0.63264894 0.2201724
90 -1.3219419 0.47534135 -0.3378289 -0.13229686 0.034058977 -0.23713534 0.2901601 0.3425717 -0.6292121 0.28041464
2382 -1.4628837 0.47528198 -0.34752092 -0.044454467 -0.04370525 -0.37885392 0.10436304 0.4142617 -0.6968954 0.20123555
198 -1.3978252 0.50773144 -0.3024732 -0.21614137 0.016581226 -0.30202594 0.17631055 0.30256772 -0.6771804 0.29169157
873 -1.3605149 0.51828307 -0.3753925 -0.14693776 0.0035210978 -0.29921904 0.31797826 0.31564 -0.7175916 0.31722742
2778 -1.4509503 0.42080542 -0.46595585 -0.15968971 -0.024717472 -0.2483475 0.20232198 0.43225917 -0.7439104 0.27235478
2165 -1.4172745 0.38633946 -0.37022683 -0.082584076 0.029250467 -0.2739867 0.19460602 0.27532896 -0.6841144 0.31514856
2524 -1.4410672 0.5418526 -0.4072297 -0.14102587 -0.028101724 -0.32016072 0.2578907 0.32527572 -0.66531587 0.34185612
2350 -1.5860398 0.548812 -0.38615862 -0.19428541 -0.01415414 -0.38401365 0.16919883 0.3858399 -0.8001232 0.30473593
1044 -1.6626185 0.5619389 -0.3889669 -0.23273687 0.14679356 -0.2887169 0.2849885 0.3446318 -0.86197567 0.3648413
1722 -1.3447034 0.36541736 -0.39365226 -0.094166115 -0.027801992 -0.28241232 0.15598488 0.27555922 -0.5966211 0.21143246
2175 -1.3731165 0.51102173 -0.39452004 -0.12827097 0.057979662 -0.22886644 0.26768166 0.29913417 -0.65782636 0.2132965
817 -1.3545156 0.40825868 -0.40915653 -0.17606539 -0.054887563 -0.35475677 0.21383475 0.34411713 -0.6277812 0.2444375
606 -1.4061377 0.5124456 -0.37283403 -0.18779223 -0.026991215 -0.30166012 0.29479796 0.3004366 -0.7312686 0.24221288
649 -1.322584 0.34807625 -0.3392077 -0.09916702 -0.061167583 -0.23208852 0.16725509 0.27568352 -0.5762083 0.20723034
2420 -1.1905688 0.35886595 -0.35000908 -0.13220996 0.060010135 -0.16028118 0.24136347 0.29374886 -0.6192879 0.24709076
1438 -1.3151891 0.43773732 -0.38523918 -0.09568229 -0.025089458 -0.23759474 0.2307745 0.33214936 -0.62008005 0.26963058
2422 -1.326345 0.3857104 -0.42515594 -0.0434837 -0.067694485 -0.23251873 0.15075415 0.37224972 -0.6244082 0.23339954
993 -1.2891333 0.40238768 -0.33725497 -0.19638044 -0.05708823 -0.18611659 0.243373 0.27841362 -0.66894156 0.25839743
2074 -1.4203569 0.45373198 -0.36594447 -0.079019815 0.010198551 -0.3794106 0.2220442 0.3803055 -0.6959917 0.22833315
1934 -1.4898624 0.39593762 -0.42715153 -0.13266169 -0.0231208 -0.31042558 0.30031177 0.35705754 -0.7190525 0.27488074
558 -1.2471234 0.4392573 -0.41997552 -0.08091239 -0.04557972 -0.26582038 0.24018994 0.24384145 -0.62314653 0.230117
1728 -1.4428327 0.5470434 -0.38178167 -0.15386876 0.027084481 -0.26548094 0.25971985 0.35069397 -0.7281422 0.29157922
1716 -1.346416 0.45017764 -0.35644403 -0.10022198 -0.031886764 -0.311984 0.23708588 0.26520276 -0.6197323 0.20928794
923 -1.4424076 0.45893353 -0.42656374 0.053213783 -0.03600058 -0.31453383 -0.052243296 0.38514328 -0.55707175 0.3439539
2797 -1.2661872 0.39649194 -0.32898468 -0.143923 0.03751331 -0.2041007 0.23647183 0.34560296 -0.5991837 0.20308004
587 -1.344187 0.44874257 -0.44756907 -0.17120123 -0.05475557 -0.21705565 0.20823726 0.32908392 -0.5858022 0.28623578
1330 -1.3690649 0.45529127 -0.37231088 -0.1685824 0.050136596 -0.3151937 0.32062578 0.36030158 -0.6410399 0.26538318
158 -1.3736019 0.45374614 -0.4137664 -0.14123505 -0.025400426 -0.2657557 0.16629244 0.35199508 -0.65987045 0.31180796
2682 -1.4478232 0.50545365 -0.3161563 -0.13663152 -0.010242319 -0.32958898 0.22071306 0.3026518 -0.72521126 0.28236628
1399 -1.5027328 0.51633185 -0.3697766 -0.14536534 -0.0045072343 -0.24898992 0.22413789 0.3190879 -0.6995785 0.31100973
1186 -1.3344463 0.49032077 -0.3557511 -0.13923371 0.04238918 -0.2564914 0.3170453 0.35230932 -0.6679889 0.3142573
1625 -1.6012671 0.5315615 -0.43085593 -0.1693019 0.01939028 -0.23851539 0.36617488 0.4394727 -0.76148593 0.30533484
2745 -1.2877651 0.51944184 -0.2622566 -0.08056174 0.035988193 -0.29079515 0.24630521 0.35425416 -0.5957017 0.2339063
2499 -1.2739462 0.37675694 -0.4302357 -0.03460178 0.033413682 -0.31184962 0.14360464 0.3250215 -0.66092163 0.36906135
248 -1.4292659 0.517888 -0.3059178 -0.13861941 -0.052610155 -0.23343551 0.23438852 0.28616172 -0.7262975 0.23847039
2080 -1.3697373 0.3799821 -0.38730896 -0.19782293 0.025675097 -0.2788526 0.17826015 0.27587628 -0.6829521 0.21562773
1321 -1.3946881 0.4392371 -0.4013033 -0.101648636 0.020807441 -0.20852925 0.16374277 0.36688346 -0.5950319 0.22222753
712 -1.3554147 0.38690564 -0.38558716 -0.120226525 -0.022572441 -0.25209957 0.19112279 0.33599466 -0.67217374 0.21797793
1003 -1.4276167 0.42891565 -0.43038666 -0.12899794 -0.00037424613 -0.24495496 0.23652026 0.31235027 -0.7607348 0.3207367
1133 -1.3096976 0.38750142 -0.32313758 -0.07790066 0.0113243675 -0.16714042 0.16741587 0.35284033 -0.5094351 0.24410781
2120 -1.4602945 0.45681992 -0.32924893 -0.12660776 -0.027605297 -0.28002548 0.17791314 0.2978397 -0.6684933 0.28062886
2245 -1.2266388 0.45345682 -0.26443183 -0.018027823 0.03085443 -0.23478457 0.11018433 0.3330514 -0.58065647 0.21993011
1277 -1.3235344 0.5129282 -0.38236097 -0.09008717 0.038864017 -0.2817141 0.25789905 0.33235338 -0.6897064 0.30244088
2735 -1.2635947 0.40132836 -0.28522706 -0.09179502 -0.045136206 -0.25112832 0.17424901 0.32835907 -0.5405582 0.29693133
957 -1.3742325 0.50755227 -0.3577883 -0.13366136 0.018872071 -0.3317424 0.3236858 0.35716778 -0.71874857 0.31880388
1268 -1.5135571 0.44548035 -0.4310666 -0.12241906 -0.025450788 -0.23883212 0.2436167 0.35584754 -0.7790147 0.24590965
1529 -1.2937871 0.40840894 -0.33873057 -0.11752614 -0.04439954 -0.20681433 0.27406478 0.3191058 -0.6520621 0.30132282
1886 -1.390267 0.42805785 -0.42523986 -0.117053635 -0.025491161 -0.29548162 0.25426003 0.26689088 -0.6996977 0.30811468
1493 -1.2226858 0.36397508 -0.38552067 -0.12452549 -0.020407246 -0.17953084 0.21559669 0.2903879 -0.5854321 0.26194125
2044 -1.2849952 0.4304275 -0.39008406 -0.15021405 0.021397958 -0.28099218 0.24452803 0.3269512 -0.54684734 0.20642449
1159 -1.4214809 0.4916024 -0.37176433 -0.11897461 -0.009586113 -0.35785952 0.1792832 0.31960365 -0.6649898 0.3352588
47 -1.3706589 0.41421634 -0.35997152 -0.17039044 -0.043165363 -0.283705 0.2382202 0.27992576 -0.6369617 0.23825204
254 -1.2525021 0.41174632 -0.31303504 -0.117975414 -0.020422498 -0.24317823 0.2301995 0.35521552 -0.5619832 0.22064131
702 -1.3248451 0.4533177 -0.30834156 -0.12416758 -0.025113607 -0.22521617 0.26622793 0.3046241 -0.57767254 0.17057528
2766 -1.4920083 0.44045883 -0.54720616 -0.09331204 0.029904421 -0.2520454 0.35398364 0.30787656 -0.70017445 0.40406117
2453 -1.268981 0.46478474 -0.3300957 -0.06874332 -0.025930194 -0.21208209 0.23189647 0.3680847 -0.6512768 0.283948
2508 -1.3928914 0.51178426 -0.33038926 -0.16809316 0.020216698 -0.22849435 0.3017704 0.28173143 -0.69040114 0.32804945
841 -1.6561682 0.4250817 -0.4753014 -0.17653039 0.05179602 -0.29849324 0.213991 0.4295724 -0.818604 0.33392918
810 -1.4512013 0.4758078 -0.39567986 -0.21269414 0.03525993 -0.28267518 0.22238912 0.3931219 -0.70621943 0.28458518
2788 -1.1946093 0.41375437 -0.3683691 -0.043509502 -0.072763085 -0.2692015 0.1493361 0.30736938 -0.62772226 0.22684786
1341 -1.6921047 0.4210705 -0.4868946 -0.18267453 0.006648626 -0.24143267 0.2793671 0.36457095 -0.8497559 0.38528475
274 -1.224004 0.4052016 -0.32953185 -0.09411174 -0.044211455 -0.2811156 0.2637963 0.34578565 -0.67047095 0.19688006
17 -1.4053348 0.47001565 -0.35456607 -0.033314154 -0.027318629 -0.25983536 0.23310818 0.320952 -0.67342573 0.2738627
1016 -1.2525858 0.46832517 -0.2718486 -0.18645397 0.013354584 -0.21042007 0.331476 0.34796816 -0.644631 0.2542978
1351 -1.3587165 0.47451892 -0.37953144 -0.14920245 -0.05271575 -0.22167267 0.20330036 0.36525556 -0.65980023 0.23591769
415 -1.233069 0.43817824 -0.26976696 -0.15812418 0.0042034495 -0.2688643 0.2605707 0.32991078 -0.5707976 0.20856605
2646 -1.384688 0.43923163 -0.3931711 -0.14040892 0.015384565 -0.25455076 0.23665032 0.4191961 -0.65088165 0.2835018
1718 -1.309842 0.46139833 -0.37518185 -0.1370086 -0.06060385 -0.32839876 0.22532956 0.34940362 -0.59972656 0.30462712
926 -1.2764269 0.4201853 -0.42440945 -0.13940835 0.0010181153 -0.21753351 0.16978946 0.32411903 -0.68939835 0.32630157
1141 -1.4072373 0.4463401 -0.36087537 -0.04169241 -0.06471023 -0.31750137 0.17039366 0.39740643 -0.6198866 0.22055921
2794 -1.3615705 0.4244165 -0.4002967 -0.12921353 -0.011634604 -0.2729831 0.32137468 0.35041913 -0.7312499 0.26314512
1189 -1.4297724 0.42096332 -0.3515842 -0.109676 0.018004898 -0.18408325 0.22708866 0.32275653 -0.6013144 0.2596459
2436 -1.3702707 0.42859846 -0.31995502 -0.1780044 -0.035904072 -0.32581377 0.17943251 0.3344926 -0.6667128 0.24814835
1777 -1.3860104 0.4301053 -0.39233023 -0.19391742 0.022542292 -0.2653663 0.26708093 0.36284667 -0.68380016 0.2816908
2424 -1.2653123 0.39334032 -0.28820392 -0.08348353 0.0048322454 -0.20051858 0.17854194 0.27793226 -0.6379633 0.24689442
1025 -1.3899593 0.46110183 -0.31901467 -0.123058684 -0.019519223 -0.21793787 0.228719 0.3552142 -0.6395549 0.22450455
65 -1.3606566 0.3819826 -0.3796349 -0.136966 0.02137969 -0.20329346 0.2123106 0.3401873 -0.6564831 0.31582415
2679 -1.6691309 0.4429439 -0.41024294 -0.17314667 -0.07204429 -0.4139 0.18074869 0.35907006 -0.71082956 0.2832459
2437 -1.3242717 0.39726603 -0.32227793 -0.16871919 -0.038582027 -0.16076411 0.2333394 0.3758217 -0.66263294 0.22025907
2636 -1.3065535 0.43808407 -0.392579 -0.13266616 -0.0016341372 -0.28713468 0.27405608 0.338781 -0.66684765 0.2786555
2177 -1.5555693 0.5309324 -0.3946841 -0.12359991 0.07459083 -0.31319895 0.29513916 0.31346005 -0.7738972 0.36900714
2611 -1.4320362 0.4378764 -0.43238997 -0.105004884 -0.06479533 -0.30213997 0.1519018 0.36279184 -0.6457256 0.22356442
2642 -1.3066785 0.43135142 -0.3904411 -0.12931128 -0.03589355 -0.2467507 0.21673433 0.35755417 -0.64162844 0.22163315
1093 -1.2106129 0.35156834 -0.30386028 -0.12798314 0.017530896 -0.20558205 0.08233504 0.34895843 -0.5789301 0.25982198
1411 -1.4563653 0.4429041 -0.36020824 -0.07521766 0.031107908 -0.31209958 0.12532324 0.38751334 -0.6112871 0.27687612
2608 -1.337387 0.4709411 -0.36368817 -0.1756862 -0.022814436 -0.30889952 0.2377516 0.2661595 -0.7136055 0.34115544
1637 -1.3096852 0.45086223 -0.43934616 -0.1187253 0.055279054 -0.31536824 0.23125014 0.3014841 -0.62545055 0.31078213
1607 -1.3464307 0.4961922 -0.26002315 -0.082120344 0.03343327 -0.19524634 0.2697008 0.27872434 -0.5531475 0.21099488
173 -1.2547657 0.42578828 -0.33194607 -0.17364582 -0.033259798 -0.29355338 0.26904112 0.266859 -0.6471208 0.28010902
1163 -1.2436479 0.48582983 -0.16802275 -0.23283467 -0.25718707 -0.32509896 -0.17702402 0.23800677 -0.76926756 0.42264676
849 -1.341462 0.42800006 -0.3261004 -0.11757726 -0.031269114 -0.32087752 0.20491405 0.3739086 -0.6698111 0.24396178
2407 -1.2183565 0.49648544 -0.3203438 -0.1349485 0.027074974 -0.18689187 0.2751592 0.3384392 -0.6264602 0.27434993
1272 -1.2097089 0.36271343 -0.35210115 -0.09532667 -0.055671766 -0.23448998 0.16785237 0.2958216 -0.54005367 0.26849687
1432 -1.2448103 0.41379845 -0.33831817 -0.14534828 -0.050846875 -0.24683645 0.22753178 0.34455654 -0.5669759 0.18166317
381 -1.3538989 0.44783437 -0.4577274 -0.12551695 -0.00028241443 -0.20229515 0.20902053 0.35299626 -0.6356566 0.23390244
685 -1.3976308 0.48400214 -0.44880253 -0.11296511 0.02549307 -0.24423952 0.27548558 0.3315346 -0.7304654 0.30196446
404 -1.5442301 0.5398488 -0.4471255 -0.16052495 -0.047755048 -0.18028387 0.23743337 0.3109826 -0.67142755 0.3514467
1517 -1.3388877 0.42130026 -0.40223852 -0.10251444 0.030532273 -0.29760674 0.2241546 0.29329273 -0.67784345 0.23762077
302 -1.276829 0.34784704 -0.30308792 -0.05859339 -0.057645276 -0.26476505 0.07873105 0.29261833 -0.54674274 0.18257284
343 -1.257774 0.34635532 -0.37749296 -0.14260335 -0.007245195 -0.26795793 0.22546105 0.3262004 -0.6578216 0.23686905
864 -1.1989666 0.44385055 -0.28725982 -0.13029036 0.050860487 -0.20750946 0.21107246 0.25690177 -0.5850923 0.27613336
235 -1.3714544 0.42414048 -0.36723772 -0.09955954 -0.027416283 -0.35879937 0.19197187 0.35254008 -0.5713762 0.21844167
2716 -1.2665133 0.3706478 -0.40589255 -0.08291456 0.021179805 -0.3007878 0.17414843 0.34266207 -0.5656587 0.26593724
1750 -1.2144036 0.37419114 -0.3555039 -0.20157635 -0.0017121357 -0.26725224 0.16353205 0.26399198 -0.54623216 0.2436373
759 -1.425232 0.46639445 -0.35036743 -0.092241324 -0.03434865 -0.31512198 0.11782365 0.4057456 -0.5972802 0.30946758
2176 -1.3483573 0.5393559 -0.35897982 -0.14013562 0.004453568 -0.29499778 0.21254556 0.3335296 -0.64591676 0.2611402
1388 -1.4245163 0.43952286 -0.43143982 -0.12957653 -0.014645359 -0.31167763 0.26975802 0.3822491 -0.6302875 0.24502447
2417 -1.3828489 0.46810377 -0.42305323 -0.17781186 0.06306923 -0.31005093 0.17671344 0.3181091 -0.67550105 0.2957885
1656 -1.2587897 0.42396373 -0.36307478 -0.13836804 0.01595787 -0.23117949 0.22179516 0.28855687 -0.68349 0.2934945
1454 -1.3417379 0.37073985 -0.43018827 -0.20379707 0.048068512 -0.1502257 0.080428556 0.32829675 -0.5750347 0.25159657
2368 -1.3363076 0.48974636 -0.29962623 -0.107422635 -0.045985516 -0.23598452 0.21093652 0.29119024 -0.69327456 0.27472368
1460 -1.3062074 0.46613184 -0.3574256 -0.063112274 0.026389083 -0.32177228 0.26074517 0.27669546 -0.6402308 0.3144983
1986 -1.338766 0.4295659 -0.3883021 -0.17322113 0.06300679 -0.26719666 0.2662363 0.28149164 -0.62507474 0.31175008
1221 -1.2635701 0.4008176 -0.33664972 -0.08964345 -0.00068982487 -0.21895304 0.22994222 0.30428046 -0.708837 0.27248028
200 -1.4393219 0.42895475 -0.43321157 -0.17331256 -0.069144286 -0.30954248 0.21371362 0.31565282 -0.7030442 0.27201995
1720 -1.383026 0.4229436 -0.32957458 -0.10178078 -0.0030061037 -0.2323681 0.25769547 0.35334826 -0.6884517 0.25862783
1202 -1.2278727 0.5162775 -0.28612518 -0.18483034 -0.024332412 -0.29269046 0.30195194 0.31675398 -0.5991465 0.20593046
2540 -1.2621355 0.38194165 -0.292186 -0.17342791 -0.00329233 -0.24425186 0.17713486 0.2885748 -0.5735111 0.22691458
1832 -1.4905398 0.5151394 -0.5173742 -0.19183916 -0.041942995 -0.27553394 0.24707603 0.31715262 -0.7373343 0.29130697
2148 -1.2902654 0.2766158 -0.38483325 -0.12944825 -0.08171031 -0.19911695 0.13835107 0.33590335 -0.5136697 0.22226174
2217 -1.2785474 0.39709255 -0.3625652 -0.14149821 0.033959445 -0.28714392 0.18346319 0.34083623 -0.5018821 0.23649895
455 -1.4043697 0.3727665 -0.44875875 -0.0681193 -0.015396322 -0.34975022 0.2083789 0.367642 -0.7120152 0.31291226
1284 -1.2754128 0.56107193 -0.29318076 -0.16107768 -0.08051954 -0.11742556 0.22150767 0.34590396 -0.70506966 0.31174204
401 -1.305859 0.46754816 -0.3936719 -0.11490631 0.0023676385 -0.29811028 0.20931964 0.25973865 -0.62803763 0.27779377
2776 -1.3233899 0.42552862 -0.39536953 -0.1715392 -0.0199856 -0.32973576 0.29920205 0.2914925 -0.6024688 0.27702603
854 -1.3201782 0.46869358 -0.43570045 -0.14698306 0.03928407 -0.29334426 0.29777026 0.30746076 -0.71319044 0.30973563
1521 -1.29927 0.38577935 -0.32341647 -0.073722385 0.0067483014 -0.3883774 0.061896842 0.32788742 -0.5472145 0.22236045
228 -1.3589112 0.43846393 -0.32120377 -0.07732526 0.0021114617 -0.27810857 0.16972934 0.36634296 -0.66972476 0.2480599
1879 -1.4706221 0.39546743 -0.53593594 -0.19671981 -0.049689885 -0.25619236 0.1963711 0.40859053 -0.7436497 0.29993084
500 -1.2505609 0.47177696 -0.30386978 -0.109038614 0.043876648 -0.3351243 0.22519757 0.26113018 -0.6004543 0.17638448
2775 -1.5085144 0.53581685 -0.36365822 -0.17759608 0.040629983 -0.20687237 0.26521719 0.34857246 -0.780485 0.25867414
2730 -1.2073162 0.3061105 -0.29833058 -0.09279104 -0.06774993 -0.24397816 0.055560447 0.3335062 -0.58627343 0.20233259
2364 -1.2648592 0.3466668 -0.33561617 -0.10492932 0.017825475 -0.27528235 0.18021894 0.31946248 -0.5854042 0.21180056
307 -1.3062265 0.40675727 -0.40864262 -0.09623818 -0.06953511 -0.17555684 0.19229057 0.27394873 -0.57336557 0.2928537
2650 -1.2789397 0.38113874 -0.36919037 -0.14542724 -0.0064188386 -0.22491674 0.20330472 0.3194435 -0.6353479 0.25293174
181 -1.1926694 0.43890283 -0.2957172 -0.14544931 0.008264969 -0.2011041 0.20159659 0.32579422 -0.54805785 0.29349533
965 -1.2525249 0.41805762 -0.3177085 -0.13250966 0.06421097 -0.29237542 0.20950712 0.2793121 -0.56353545 0.29105547
448 -1.2751945 0.37660655 -0.3439639 -0.091673695 -0.074739516 -0.15712242 0.13325033 0.2929827 -0.47744405 0.26257285
2146 -1.4666053 0.4248742 -0.43220365 -0.1388212 0.05548285 -0.2417381 0.17800474 0.32715935 -0.71830547 0.2756242
1565 -1.2797506 0.4767815 -0.41499072 -0.17529353 0.012852401 -0.23558183 0.2834616 0.2712433 -0.70040447 0.33544257
1391 -1.4914359 0.41486806 -0.44108897 -0.13769047 0.045927122 -0.32520953 0.15518937 0.33295712 -0.6999824 0.36040044
2330 -1.3091263 0.28315958 -0.22670767 -0.23003237 -0.14050412 -0.23292443 0.15172018 0.29080817 -0.4881441 0.37467948
2813 -1.3099719 0.45267785 -0.4510188 -0.08638565 -0.07896044 -0.28466892 0.18430997 0.38289168 -0.7080928 0.30058876
210 -1.3451904 0.3825668 -0.41637343 -0.10222802 0.0354657 -0.26292616 0.21542983 0.30130965 -0.6926054 0.23118657
2016 -1.2129669 0.49933946 -0.2898683 -0.08209178 -0.025333265 -0.23450041 0.28429917 0.2186416 -0.60240275 0.26963615
2041 -1.2701827 0.44571164 -0.3783881 -0.17909795 0.008159721 -0.30402225 0.24443813 0.29452145 -0.6418004 0.27808076
2412 -1.1698256 0.36365512 -0.34521824 -0.13523233 -0.016123993 -0.26023763 0.19889809 0.24186459 -0.6058176 0.22413053
1259 -1.2856755 0.44685233 -0.35364383 -0.08861256 0.055229627 -0.20489322 0.20334831 0.36096293 -0.6043322 0.33265817
824 -1.3484118 0.4532878 -0.43637124 -0.14168674 -0.037073344 -0.24033105 0.29918215 0.31430215 -0.63868743 0.24648857
1278 -1.2119142 0.36962697 -0.36877114 -0.10473748 -0.006151805 -0.26205796 0.21536861 0.2580534 -0.62300485 0.23744501
2034 -1.1915108 0.42222995 -0.25965458 -0.17460008 -0.018213285 -0.15433377 0.045331314 0.29833075 -0.6802577 0.22901961
2732 -1.2114687 0.42378762 -0.43220702 -0.13610296 -0.011755106 -0.26763022 0.18789996 0.30555075 -0.609314 0.25320145
2580 -1.3762356 0.3941941 -0.4251976 -0.18738878 0.0025512942 -0.24759322 0.2718562 0.3588691 -0.6958099 0.3085544
1034 -1.2473767 0.4172671 -0.3019703 -0.07227143 -0.04322412 -0.2077765 0.2562076 0.34971982 -0.59015703 0.23778152
2625 -1.4149991 0.45862108 -0.40472144 -0.111366965 -0.08942487 -0.31533676 0.28437743 0.42001423 -0.6467316 0.34322473
562 -1.317989 0.41470742 -0.36984402 -0.19128844 -0.00493196 -0.17388058 0.29748362 0.32136136 -0.6641042 0.2335204
1948 -1.1945271 0.3902818 -0.28444397 -0.13482438 -0.024448194 -0.26228926 0.15031868 0.34426317 -0.53270787 0.24297681
2458 -1.354705 0.5468183 -0.28865263 -0.12578122 0.0014780678 -0.25810245 0.22504298 0.35979533 -0.62535024 0.24678263
82 -1.285825 0.48102108 -0.30446854 -0.087170266 0.025719728 -0.23417147 0.16287532 0.33579877 -0.585326 0.2588184
2327 -1.2964389 0.33030272 -0.347602 -0.036385123 -0.035093106 -0.3159949 0.1369308 0.26247877 -0.6502955 0.23475964
946 -1.2397532 0.3734207 -0.3704605 -0.12491368 -0.05027847 -0.33352968 0.11125674 0.36176682 -0.60834754 0.2878292
284 -1.2962149 0.4916131 -0.33936408 -0.08356283 0.011036707 -0.28025138 0.22622144 0.33156103 -0.6799909 0.20517232
2517 -1.1734927 0.31718013 -0.38416904 -0.1589559 -0.04002859 -0.1746884 0.13865596 0.26235467 -0.54633653 0.17727688
1935 -1.274688 0.4739636 -0.33213317 -0.13962223 -0.038447246 -0.32024428 0.18603383 0.26181826 -0.6018323 0.17398663
1307 -1.2618036 0.42002898 -0.28224128 -0.15899526 -0.043013606 -0.30061948 0.24483657 0.30542824 -0.5985648 0.27715543
1827 -1.5656013 0.40358815 -0.44469887 -0.13204676 -0.025727632 -0.3534388 0.17856862 0.3270765 -0.71283233 0.3598954
1528 -1.0973907 0.44428352 -0.30080014 -0.15967199 0.01614724 -0.28599578 0.27175042 0.24453181 -0.57847255 0.26106408
843 -1.3376318 0.4307702 -0.44900712 -0.19636062 0.048968818 -0.27709174 0.26677993 0.28535694 -0.6516825 0.33822894
1964 -1.4346384 0.40703633 -0.33181575 -0.19282374 0.040090658 -0.21724701 0.25345555 0.34394205 -0.73669165 0.31699884
1815 -1.3039095 0.4116009 -0.3817276 -0.05362027 -0.06753597 -0.31814867 0.16466358 0.25190276 -0.582543 0.25929853
2798 -1.2803363 0.37732702 -0.43778464 -0.17147718 0.039038017 -0.2201865 0.18142878 0.28764677 -0.6803793 0.2995518
988 -1.2007906 0.42125922 -0.32484052 -0.17027317 -0.019032992 -0.23181501 0.14513049 0.23417023 -0.7083723 0.29047728
921 -1.2306889 0.4620431 -0.2795108 -0.1467137 -0.011812815 -0.22431968 0.26728663 0.28548804 -0.63645935 0.22596222
364 -1.4346648 0.47106892 -0.30778524 -0.13711943 0.031503588 -0.30630928 0.22769469 0.32171908 -0.68509644 0.25853044
236 -1.1854323 0.5499329 -0.24855673 -0.18601768 0.018001448 -0.2019484 0.3133457 0.3231249 -0.6205803 0.21089147
682 -1.3034824 0.44149965 -0.31774962 -0.20217793 -0.0064175096 -0.24712053 0.22876422 0.30061305 -0.566278 0.28507864
196 -1.4179196 0.49582374 -0.39838478 -0.09383439 0.05016621 -0.30829993 0.17373818 0.42240545 -0.6481047 0.3407903
659 -1.3268288 0.4299421 -0.40406516 -0.13364221 0.03784255 -0.33139938 0.20113347 0.26085418 -0.6110646 0.25060737
1672 -1.5002809 0.54571587 -0.41625905 -0.19078581 0.00035528644 -0.27174413 0.20475599 0.3360943 -0.67743504 0.3117516
1097 -1.4189309 0.4462221 -0.35937446 -0.20416391 -0.046938512 -0.30431253 0.31849658 0.28621668 -0.71313506 0.27815548
617 -1.2743828 0.43170366 -0.4183081 -0.13944426 -0.008721471 -0.2844942 0.16549502 0.28249195 -0.6553538 0.28294763
2513 -1.2684404 0.42789608 -0.3965425 -0.12150007 -0.054490946 -0.2436351 0.14515552 0.29844505 -0.58258384 0.2812161
462 -1.194875 0.41794965 -0.32686087 -0.15367259 -0.040911604 -0.23261136 0.16180152 0.30049548 -0.5505376 0.28789502
354 -1.2744159 0.35846356 -0.34426862 -0.07775617 -0.039907977 -0.28070787 0.19455017 0.36664632 -0.58269864 0.25187626
2525 -1.281879 0.44603 -0.315813 -0.16099124 0.031222831 -0.22982973 0.29621467 0.34379444 -0.5939224 0.20597963
2812 -1.503948 0.44190353 -0.4880217 -0.10984166 0.026363665 -0.2587235 0.11907001 0.33165473 -0.6400998 0.31015173
1776 -1.4195668 0.49803632 -0.46383905 -0.10536015 -0.0017363273 -0.29139692 0.21553925 0.30595326 -0.69252217 0.23834716
2372 -1.2503613 0.5029244 -0.28674406 -0.09208625 -0.014718409 -0.2946067 0.23629445 0.35109645 -0.68455404 0.252718
823 -1.331 0.45770827 -0.47773933 -0.17275971 -0.04157933 -0.26833788 0.26420438 0.3144109 -0.6592706 0.29188842
271 -1.1910229 0.32639998 -0.40882012 -0.07358819 -0.0640917 -0.30702364 0.18058176 0.33331764 -0.5548133 0.24423362
2070 -1.2573819 0.31946635 -0.32443243 -0.07640707 -0.014565348 -0.30240023 0.17364515 0.3114078 -0.5968983 0.22168781
1753 -1.337745 0.44055164 -0.3054144 -0.074216045 -0.026989024 -0.26756227 0.16320267 0.33430701 -0.64160055 0.2556281
1410 -1.1764692 0.42207676 -0.2796229 -0.14437848 -0.022028483 -0.25125852 0.25706887 0.31883013 -0.65521836 0.28410453
2127 -1.2081393 0.4489186 -0.23214461 -0.06605068 -0.047609158 -0.27430305 0.121155515 0.32313865 -0.5683642 0.17096545
2629 -1.3016263 0.5117356 -0.40837726 -0.1329469 -0.010844717 -0.3041144 0.25846115 0.3151007 -0.7435857 0.30930585
6 -1.3864625 0.48331955 -0.39576834 -0.16909373 0.030286437 -0.2865114 0.20192361 0.3619207 -0.60852057 0.30473438
1611 -1.1958878 0.44384846 -0.28879923 -0.16757487 -0.029655805 -0.25322992 0.29116517 0.27542624 -0.530624 0.27085257
599 -1.320505 0.45729324 -0.38488278 -0.0906348 0.029739361 -0.26043394 0.22733422 0.30746844 -0.63672143 0.22619186
952 -1.215941 0.36564055 -0.35487744 -0.12178067 0.034085806 -0.26750758 0.24341647 0.22497778 -0.56682223 0.19792265
690 -1.2599738 0.48735717 -0.3227471 -0.13484076 -0.0154953 -0.33696145 0.2545194 0.30906352 -0.6443758 0.23607656
493 -1.3360579 0.44508252 -0.39600945 -0.073046885 -0.04900587 -0.26537654 0.17059226 0.3430968 -0.5683741 0.26277
671 -1.1544244 0.39313072 -0.34903032 -0.11862818 0.010534877 -0.24063228 0.16396205 0.31538808 -0.5252823 0.24187371
1966 -1.3270108 0.455761 -0.45675367 -0.13043581 -0.04235708 -0.23119846 0.2359605 0.27921063 -0.6337383 0.2398044
165 -1.2283379 0.41525486 -0.4099629 -0.06835033 0.0320034 -0.17746207 0.2566798 0.24732687 -0.60362124 0.24864039
1534 -1.3049932 0.38177413 -0.40951243 -0.15184763 -0.06421495 -0.29013482 0.25146338 0.3648909 -0.6423369 0.26462135
1027 -1.2606441 0.3944207 -0.39992467 -0.13652928 -0.016163828 -0.23703843 0.23555316 0.33504114 -0.61087924 0.37234837
797 -1.2803297 0.46340695 -0.34077072 -0.17805335 -0.02461342 -0.24222551 0.2891713 0.31265822 -0.61145854 0.26191187
2487 -1.3706125 0.4705654 -0.39292103 -0.14089811 -0.024343528 -0.27910036 0.21066727 0.3874939 -0.7398062 0.2878142
2386 -1.3473958 0.5019835 -0.2642172 -0.07457938 0.14318033 -0.20121746 0.24359195 0.3765464 -0.47494864 0.37528706
432 -1.3923788 0.44436955 -0.37971887 -0.15563414 0.0012426097 -0.2855585 0.18987782 0.35007808 -0.6707049 0.3145497
146 -1.3532124 0.4260269 -0.28863922 -0.07643386 0.0009057825 -0.33007944 0.1777724 0.29742306 -0.5760339 0.23569882
1992 -1.3386852 0.44182822 -0.4076898 -0.16820255 -0.02046498 -0.30876556 0.20380752 0.27866188 -0.62672067 0.30290902
2338 -1.3469838 0.40749806 -0.34117156 -0.071515515 -0.0134690115 -0.24382687 0.243198 0.2836253 -0.7020035 0.32095265
1056 -1.327268 0.34667194 -0.4371165 -0.0780318 0.03157986 -0.13960229 0.20870954 0.3607038 -0.5960189 0.31421754
96 -1.1750977 0.34227788 -0.36198252 -0.14152059 -0.0036829354 -0.20539601 0.14719678 0.23619173 -0.56700844 0.22418407
917 -1.3647193 0.45548442 -0.383435 -0.08984821 0.0053589046 -0.37737554 0.13228156 0.2937394 -0.6758348 0.29177096
2421 -1.2626154 0.36388054 -0.30187073 -0.18854277 -0.04515701 -0.28393397 0.11103768 0.27940348 -0.57368857 0.21486054
2282 -1.5602037 0.37971818 -0.45368764 -0.08273534 -0.010918393 -0.25033164 0.08520482 0.30185917 -0.70782197 0.19234447
2048 -1.2859977 0.45183393 -0.33815277 -0.112596355 0.030715002 -0.30969042 0.19763923 0.29534096 -0.6126996 0.21399055
239 -1.2036642 0.47126386 -0.31050646 -0.15093048 -0.00669255 -0.19603972 0.24581392 0.23777921 -0.6408681 0.23791763
2188 -1.274164 0.39534223 -0.33912402 -0.13931052 0.014230172 -0.23745017 0.28664252 0.2570564 -0.67527765 0.25920716
762 -1.2327634 0.40408033 -0.27122033 -0.12081834 -0.050280355 -0.12147657 0.14675061 0.3307713 -0.5680284 0.23279253
1347 -1.369416 0.438254 -0.32058328 -0.06661077 -0.002846191 -0.27780032 0.20115454 0.299897 -0.56467813 0.25787434
919 -1.1995094 0.3699644 -0.34167394 -0.107787736 0.008878297 -0.2566186 0.18986131 0.2725853 -0.55428666 0.17980412
1749 -1.42013 0.39756772 -0.34160176 -0.14150552 0.024722058 -0.2026615 0.21963716 0.4089259 -0.61278886 0.30520213
639 -1.3708766 0.4310287 -0.3406678 -0.1134551 -0.046759058 -0.22648562 0.032898873 0.21895355 -0.52592665 0.12339928
2425 -1.266615 0.40508208 -0.31496075 -0.12525219 0.0006143472 -0.28821418 0.20130114 0.2694028 -0.59303415 0.18697786
170 -1.1841865 0.41609773 -0.3428491 -0.07471006 -0.024470003 -0.25275925 0.19636078 0.29875636 -0.56997675 0.23144719
375 -1.153033 0.33699378 -0.33964786 -0.13544822 0.056132056 -0.18899933 0.18382633 0.3246633 -0.58223057 0.25741324
58 -1.1177028 0.43215048 -0.32857397 -0.12968314 0.018720564 -0.17469864 0.102864414 0.29880533 -0.5805214 0.32076395
2363 -1.3264678 0.44220158 -0.3279965 -0.2069214 0.025179576 -0.22823596 0.2805386 0.3714027 -0.65886974 0.29557362
1490 -1.1387061 0.41609567 -0.36881903 -0.13244587 0.054045644 -0.26521716 0.31337336 0.27745292 -0.5266384 0.277676
431 -1.1998703 0.37256238 -0.33180147 -0.105851695 0.030185439 -0.20250805 0.14252675 0.25913787 -0.5167868 0.18285976
2068 -1.2986705 0.45349565 -0.34850475 -0.10742853 -0.04410731 -0.30857277 0.21375997 0.2995984 -0.6283851 0.2726081
1112 -1.3144552 0.40854523 -0.41312546 -0.10589622 -0.033865377 -0.2971078 0.28018454 0.29519844 -0.56474507 0.22620276
674 -1.2715354 0.47112775 -0.30806485 -0.060119204 -0.008841206 -0.2783921 0.203898 0.25949794 -0.6174841 0.30728483
1286 -1.2478744 0.41909257 -0.34126526 -0.1066526 -0.0458904 -0.23026454 0.28325775 0.32700193 -0.6422553 0.20543261
1094 -1.2485948 0.43950462 -0.31030795 -0.13390486 0.006943963 -0.22660835 0.18196216 0.24969406 -0.57557803 0.22305638
2205 -1.3247149 0.4283589 -0.39266333 -0.10114543 0.0426866 -0.33325478 0.17118539 0.32547525 -0.55299413 0.29089448
289 -1.2295471 0.42768642 -0.33561566 -0.071219 0.007037603 -0.2958707 0.113796204 0.3286333 -0.63950926 0.2794595
1830 -1.2604644 0.31020448 -0.39399835 -0.19257294 -0.007473791 -0.23959988 0.13433374 0.30352554 -0.5660621 0.2615585
1863 -1.2190583 0.36650246 -0.4149041 -0.10629966 0.01347961 -0.21599066 0.18370463 0.24164124 -0.50421983 0.25021788
507 -1.1027482 0.3671161 -0.34340718 -0.10841572 0.0028065275 -0.26119938 0.22839285 0.26020193 -0.5333432 0.21169014
2107 -1.3898898 0.43935624 -0.3974098 -0.14322421 0.033115804 -0.21570884 0.17122647 0.29470673 -0.597718 0.26642206
740 -1.2580978 0.38415763 -0.2676492 -0.1240091 0.0048150714 -0.28656825 0.23019654 0.31524226 -0.64538777 0.19114113
2379 -1.3451126 0.47535577 -0.43531823 -0.08079943 -0.02611018 -0.3001871 0.24864092 0.31147835 -0.6582234 0.25031808
