34 10
34 0.01969335 0.051179513 0.037451576 -0.029667325 0.02239888 -0.016076118 -0.031191291 0.038281556 -0.009382208 -0.041680958
1 -0.030781426 0.054120038 -0.028306503 0.019137502 -0.041855615 0.010944481 -0.006620306 0.038588345 0.035836417 -0.03327181
33 -0.024419183 -0.015666533 0.0072470633 0.03849562 -0.035603736 0.00663381 0.046428684 -0.038145706 0.009216156 0.029741282
3 0.0444768 -0.037075114 0.04266295 0.040920876 -0.0023449643 -0.0003141472 0.05136107 0.048992734 -0.036922526 -0.0026786043
2 0.025845144 0.015559542 -0.022559274 -0.011133047 -0.015394758 -0.009913249 -0.01891671 0.01813738 0.032668676 0.0048339083
32 -0.034566 -0.014668993 -0.0008581736 -0.0050573335 -0.0077715847 -0.01999692 0.047325946 0.045109693 -0.013234201 0.023840204
6 -0.014155102 0.0515352 -0.04500344 0.022776388 -0.028240032 -0.029712 0.038848236 0.01247153 -0.029236881 -0.0074323006
24 -0.010245144 0.030989798 0.038680807 0.032493297 -0.032236703 -0.015117584 -0.03208574 0.010821255 -0.014708492 0.044800986
4 0.041156575 -0.012746666 -0.026050046 -0.012193035 0.01321259 -0.05226647 0.031476326 0.017280292 0.02500336 -0.029207673
30 0.0038289113 0.011607096 -0.026943093 0.026984839 0.0147855515 0.009053133 -0.028715335 0.053663872 -0.029022595 0.01651972
7 0.03210773 0.02130834 0.046827808 0.010873698 0.019974088 0.016328366 -0.01738388 0.056082513 -0.01687312 0.01536381
11 -0.00833117 -0.030782674 0.027547551 -0.008374 0.0425477 -0.028152082 0.04249737 -0.021444438 0.034289215 0.039761156
14 0.04097547 0.01980686 -0.018602556 -0.037369847 -0.0109463725 -0.029993292 -0.016714538 0.0073516686 -0.0016352511 -0.014774156
9 0.013695569 -0.008306625 0.02811911 0.047555275 -0.041776147 0.01013413 -0.04492253 0.027146343 0.046232045 -0.033991713
5 -0.028649885 0.03834977 0.035901155 0.046874534 -0.045022197 -0.0027132554 0.038674053 0.031122055 -0.022002239 0.02850256
8 0.03681182 -0.025508732 0.00883218 -0.016315173 0.0154679585 -0.013760345 0.02956755 -0.013882427 0.04013478 0.011743317
26 -0.012127175 -0.035655513 -0.03945632 0.0109922895 0.031086903 -0.018015679 -0.03152487 0.047923632 0.015660135 -0.025196392
28 0.03172185 -0.0059401016 0.036003295 -0.0059465496 0.033909403 0.016224593 0.0047616903 0.014479876 0.03865855 -0.010490239
25 -0.033259436 -0.020881359 -0.034745168 -0.004714327 -0.0024457015 -0.01023313 0.042569734 -0.036853246 0.05073362 -0.04064144
31 0.036167424 0.04467654 0.03670111 0.039974116 0.010691937 0.0008591176 0.0062822644 0.024128143 0.046224058 0.030935235
15 -0.0025898814 -0.024006547 0.027639845 -0.03214047 -0.017530339 -0.012193422 -0.008511238 0.045988865 0.018114153 0.0026092606
27 -0.022018919 0.031563364 0.036871605 0.043307226 0.032073516 0.033870712 0.018635174 0.047806937 0.045364857 0.005056349
20 -0.04835497 0.040931754 0.04105061 -0.03711223 -0.036914334 0.029274391 -0.02535535 -0.01723728 0.030890994 0.041899286
29 0.018975627 0.04108651 0.0059355204 -0.001607788 0.0404043 0.0012448803 0.043277644 -0.044091806 0.016862296 -0.04131784
16 0.014192111 0.015069654 0.014804141 0.025656383 0.0219162 -0.03140775 0.05316774 -0.013097156 0.0018287357 -0.041856427
18 0.020974884 -0.036595136 0.04832347 -0.013972919 0.0023882037 -0.045151386 -0.009149892 -0.034030568 0.016719485 0.04170246
23 0.037715714 0.0104324715 -0.047308836 -0.013934207 0.044700366 0.00026180776 0.01457518 0.026950361 -0.023030913 0.041226115
17 -0.03664622 -0.043790974 -0.012267782 -0.012564693 -0.029377822 -0.0015727933 0.050491694 -0.038157564 -0.01685168 -0.049425524
19 0.00074412447 0.036698323 -0.027353186 0.023153214 -0.024672385 0.018456165 0.015585349 0.048260104 0.011526825 -0.022795863
22 0.042659167 -0.023550943 -0.013268713 0.03760828 -0.009513869 -0.03318578 -0.04100761 0.028283263 -0.018179312 -0.015504796
21 -0.029778218 -0.04736079 0.039234247 -0.009027427 0.02811518 -0.030816603 0.0048390892 0.019579556 0.042300027 0.027172819
10 -0.048404455 -0.029340519 0.046270095 -0.019004073 0.044081513 -0.04439072 0.006277697 0.057185132 -0.041172277 0.0356809
13 -0.047511056 0.05103741 -0.028391475 0.04886554 0.024147868 0.029405493 -0.033532884 0.036014818 0.032186568 -0.038439885
12 -0.005081889 0.0012463849 -0.008233291 -0.048797704 0.048905157 0.018991333 -0.04726365 -0.024172174 -0.008937506 0.033036098
